World_Wide_Web	-1.94681557493244 -6.50705194830137 3.32221835401371 -9.97879389259198 7.1882792440682 -3.12736482227878 7.07190500093589 1.26415940685922 -1.2282993668924 10.3075117043334 -13.0597923392525 1.66530620728527 2.3125846752145 -17.3406220468564 -0.173901892869955 2.17906583459119 -5.74964738220386 -3.4692661124297 -4.57886776438551 -10.229020566864 -0.757375778100145 -7.46375826961227 0.327256466156219 -2.37969504814777 3.66231237168408 15.8507480721062 -7.41151782015381 -10.3948615607434 4.56613387023514 4.9173198889946 -2.4869969207575 -10.9800044911985 3.45498350788698 -2.17716896949324 3.58361086185166 0.553802737346608 -1.83471538482113 -12.4636418151977 0.0602029727261611 16.2020855876698 -5.1456396065143 -1.96224987207816 2.14354365561596 3.97453854829276 -5.78430459889482 1.28631531282494 -7.43110198533681 7.64158593776175 -1.51021368920529 -3.77787556195706 3.03016991646553 9.23708297041911 -6.47162210111383 5.68622586817982 -2.15775404100264 0.178783598041981 -0.811528286802758 3.84195813388912 2.28363603542723 -4.82783917912739 -2.11622787723221 14.6315786635333 -7.84530800303238 -3.01412607810145 -2.26946987341435 5.25138518406137 1.74938132330431 -0.798685600420418 1.54715651417395 1.82979718724894 -7.09905766245459 -0.527421820107852 -10.3824808456181 5.16012669496797 -4.89430697853948 1.39719477424667 -7.4804250877679 -4.07107402818256 -0.373482696673801 -5.27791606072184 -6.4169795965891 -8.43108194453038 -3.19528045283543 -0.749850298640539 0.503423746527237 -0.463082195364763 0.531253601717292 -1.72556318676913 7.72225214615317 -10.6257671138496 5.98298486320952 -11.9284556470908 -5.14458240837095 -4.30253307368267 4.58630020687926 4.97724248980848 0.914829609531551 11.4458367318553 3.36410060340945 -10.6457054995278
Accounting	-2.50547158708797 -5.7900209069242 2.99853059322817 -10.8140435316985 7.01605064068962 1.06444329015281 6.46212014344313 3.52774589250194 -3.00563214801722 10.9489186051487 -11.6640431934714 1.11390920206297 2.64627542119224 -16.4120800752715 -1.0945491296291 2.278107630763 -6.09037451510332 -4.22431254016967 -7.20439472256757 -11.3196193840557 -0.612799939999814 -8.70467590357535 1.68463799281521 -1.91048393422793 4.83071615217321 15.444005739424 -5.90269488120546 -7.84299783420847 3.22291224490325 3.68431761116684 -2.33433298843183 -9.65543611253065 4.35872801959342 -5.12448168647866 2.82306668200939 1.49068498433838 -0.101155685835683 -11.514186530673 -2.03974767925652 16.8800975531971 -3.4300135271821 -4.21977716610497 1.67639713187927 4.44110331536585 -2.76300885239983 4.6493838492576 -7.20271245403915 8.29832620939176 -0.827173849890511 -4.01548417753448 3.36326034672161 8.37119712268501 -8.43579784546179 7.45624090885034 -1.5504506228464 1.72668486395074 -2.7306291649897 1.96451472329407 1.14454906844805 -4.25715045594259 -1.87616485846948 13.8192546396778 -6.9210708554147 -1.78125203829283 -1.73696981238133 3.76563856646024 1.48645470652434 -2.35478084845978 1.39723310537213 2.86627073605545 -8.69944906685572 -1.50625845259467 -10.2075136294783 5.10409613389559 -5.81783172860982 0.297325546732241 -5.92785378988074 -4.70512050425699 -1.85179922492181 -2.86933315335481 -6.81449408948069 -8.85722442295132 -2.94274018721734 -2.42803788590547 -0.355523133547376 -0.288779202750983 -2.58443211615266 -0.379814598343005 7.09910141081931 -11.0106200468358 4.40083703186223 -10.070159866847 -4.35832488213304 -0.848542339683059 3.66177403063835 4.87657775191822 -2.49856963060925 12.0326068538111 2.04708645882055 -10.0014789756799
Acoustics	-2.67838981250083 -5.34239534187451 5.73208906967915 -8.30477959158696 6.50866595437722 -0.761222632830281 7.21144078424579 3.24005162448746 2.24153221552023 8.9460075464774 -11.8664521822327 1.800438893763 0.124749513895743 -15.4522807087913 -2.37111683773159 -0.249007834020069 -9.69108450255443 -2.36784804775934 -3.33107438592598 -10.4352955718171 0.233538685447698 -9.15456147119938 0.594682466721225 -1.98224890787647 3.42535971459061 13.5709799018122 -6.50295814622228 -10.4871766403911 3.20578654958276 2.50585031893947 -4.12035470336453 -10.099543715094 0.269483781415716 -3.4727885749943 7.57684092596419 0.749630870498291 -0.819591844045826 -13.5472201966275 0.830781904566643 16.6334242824367 -6.75690906830022 -3.01086001352883 2.45471129884984 2.87745458217324 -6.51118340119166 3.19201710685373 -7.0504316639911 6.93094627120996 -2.88814128773153 -2.9775283915103 0.666374353017918 8.21378818238345 -6.69634794075933 7.56878597884591 -1.53564284141363 -0.631716588389637 -2.57343426131417 4.57293353242747 3.7473009009361 -7.9426432910742 -2.78757172564484 14.3610408703734 -7.88157282529622 -5.17775872656658 -4.04133188000663 3.47717921644196 0.217413885148482 -0.800780623540649 1.16192837750632 4.099103079614 -5.66239919226002 -0.420555684365185 -10.7409667332776 4.79351597749355 -4.02662790745738 1.91008497637739 -7.15698111884734 -1.35172694313247 1.74218165639111 -4.14893166493864 -6.95574455179624 -12.4669489209103 -2.53379914591495 -1.06615913890146 0.0681388282091383 -0.355097278275308 -3.14766002419506 -0.756378923928565 6.59340471535999 -10.9432436440127 6.60612819816343 -10.5565384157823 -4.71071933953511 -1.3740315282301 7.04544744683797 4.75550942572491 -1.94548139860426 11.364803652698 2.66764338265483 -7.97035840604099
Actuarial_science	-2.13087369314388 -5.49578593740922 4.81288417406662 -10.0628683464176 7.20677603536224 -0.247723029711663 4.67220664824215 3.72096090272129 -1.94510651093193 9.50333467601543 -12.2594767924182 -0.616722775332835 3.74704608125035 -17.0784421346885 -0.186801316288321 2.82393920139687 -6.24127729307738 -4.42532615404657 -5.51476659612457 -10.3241784661278 0.519504337228241 -7.91564707586677 0.270334413063191 -2.90719567523869 5.5213921424025 13.6841747989614 -5.67512460509746 -7.72376066436149 2.74122403141622 4.92338292683473 -2.17203947705747 -7.93878918302587 3.92899109632044 -4.63887298291008 4.18165225633454 1.32164344324666 -1.10229039425741 -13.7333904838735 0.114876699038041 15.7203011211885 -2.73703238647645 -3.68276878183832 3.10408204809869 3.64564987242893 -2.94043433388846 5.16160090708372 -6.48033484534876 7.06086286032384 -0.374805056673237 -3.2980466283733 3.36939689867459 8.20839043921635 -6.90526226394957 5.80597546821232 -2.49696598999078 1.12157993416737 -3.25260001814528 1.08335234651139 0.0947784581729171 -5.06494062575162 -1.87160453163332 13.4391585210913 -5.93247701438243 -2.68209740924105 -1.55393912374968 3.391713031651 2.12027132027331 -2.58821645097109 0.883096018135941 1.98516278313294 -6.56241581194649 -1.40541961963087 -10.1137385153678 6.47851080137436 -4.27741198311852 0.987965130417571 -6.95677404207978 -4.08577365985047 -1.48283953647621 -2.91654848926931 -6.27089279748575 -7.68169150197515 -1.53399441847484 -1.24947051133907 0.16090112191027 0.351827716454163 -1.83004065190888 -1.01322977707272 6.76320085300247 -11.2315821975666 7.00450746540775 -9.51786299217789 -3.95596962080579 -2.38427401187706 5.07945811705022 3.98776578015135 -1.9936054156786 11.4830535747131 0.913461733188875 -9.93279652977794
Zoology	-3.62712907513051 -4.99551914611953 2.89260973469011 -8.77259485387547 9.32880794684519 -0.583982259018613 7.38964915386516 2.71962646661646 0.305687595454074 11.5673643338939 -12.4605965733264 0.804283226224489 0.34700217852197 -17.1967913647318 -0.497544007550377 0.339989779631565 -9.33503462787425 -3.66000645271454 -4.63058333487146 -11.3919567349781 1.56997882233989 -7.50310197054548 0.272035052764321 -4.59647972109763 4.00350660352607 16.386681566257 -5.53061599872106 -6.46323469981552 0.498759822213109 1.2489521908593 -3.42977067773947 -9.24175442226778 1.57259223480509 -3.36330324865909 5.20521276381089 3.20592453928788 -1.96238041392248 -10.6919980901646 0.0226663585103448 15.1345534796222 -3.56728479740937 -2.72798371339194 1.52194999996201 5.2507586513459 -4.33864851972091 2.60556290125543 -5.36799528099089 7.63734678007843 -3.20220239423464 -3.86810722070283 3.34591867631331 7.60657507763935 -9.33877420416418 5.91363880911409 -4.23490413180464 0.192440876692856 -1.10840923558044 3.00932605937225 2.71458386966498 -6.01652573908765 -1.40518970024362 13.3934739816176 -6.783329807438 -2.38088468666207 -3.38441217196242 1.96676693475571 1.96945493278014 -1.06475809700705 1.83316471066562 0.649199591434649 -6.28850234814057 -1.31283852969741 -10.0389179659561 5.39027794047228 -5.3605594086849 2.55682645527665 -7.06691166677279 -5.27057838199789 0.73008733388812 -7.12088510842715 -5.82964414076735 -10.204696295028 -2.64203556869185 -0.290408016236216 2.20505230322668 0.137369665604963 -2.73303386347843 1.76764807237312 5.68916819088233 -11.4927774271596 5.68084542686478 -10.5646916655904 -3.51306865074037 -5.26472647086701 6.98395641448169 4.19328931956159 -1.34867928414998 10.6294836219569 1.09037361065599 -10.6986066421977
Advertising	-2.83251923762442 -6.61821402123904 4.50454491482449 -9.84802354860531 6.86316024072264 -0.758005157487484 7.37579065870148 2.7128301886118 -1.45699846360207 10.8604918966338 -14.9631552547819 0.235676756992724 1.99144145420848 -17.6547030805806 0.724433699876711 2.68063222255846 -6.18632036863287 -3.79663359796925 -5.93581386027564 -12.0370225810052 -0.871650958350194 -8.58416577671565 -0.2936351734893 -4.43901958217823 3.82567319721923 16.5028890898562 -6.27622777412219 -10.2460256154655 3.53179571488967 3.76209306072136 -4.16034170151055 -9.45223551678486 2.48494229064806 -3.71525074205302 4.35655795707593 1.73790122442847 -3.11278701556361 -15.4547293756611 0.769264453662697 18.8169669810626 -4.02186794538056 -2.90590143188612 2.05479622093205 1.31865497675432 -5.35531991207043 3.61434538217809 -7.71620500557664 7.85889486483475 -0.824045636768806 -3.47780703830619 3.76536494468578 9.87351699274098 -7.78042343276875 6.50172185780729 -1.16384649182816 -0.451745072409675 -2.94389736776424 2.30345808090318 2.10470615782953 -6.90758319461977 -2.94087977786022 15.382522897141 -8.32482494122677 -4.58229455329207 -2.16932991660341 4.23203050030823 2.20354509244109 -2.0210588872708 1.82082023806825 1.72683023330506 -8.45286245522098 -1.51848869901407 -10.9473677452087 5.3283412913331 -5.19823342925219 0.781270149181207 -6.37458523005716 -4.21311490524821 -0.665547086632889 -3.47801962236024 -7.7898219033326 -9.40897161191121 -2.76788919805094 -1.87189730020933 1.79933109746561 -0.358986163547313 -0.35366345467954 -1.71894139124051 8.35314570358394 -9.98489659969983 6.10784140951398 -13.7463901583014 -5.57989123985268 -3.22710427121457 4.14580481753513 5.5286159578713 -0.807642498691678 11.6194219357384 3.27764704501919 -11.8382164400595
Aeronautics	-1.46731306410195 -4.70309422183593 5.91515694295761 -9.42783598060337 7.2653443533919 0.475746169850065 8.43729774938388 2.60928670528212 1.26352311431379 10.4535518613582 -13.8787805523882 2.52967519350213 1.94812732050241 -16.5550950517802 1.85670926322677 1.23739225891024 -7.51376797401845 -2.16203712330819 -5.55397159851572 -12.2074914160921 -0.41037176709236 -9.08414402473306 0.486734685120231 -4.6469067846232 3.75296510472627 16.4947440194557 -6.83967660310753 -11.3992856778445 3.72495984387259 4.16069127159268 -3.44618899621487 -8.98507785569401 0.209363966268636 -5.95103964714804 4.82019947001374 1.7476538483846 -3.4007690128977 -15.3307593844533 2.06333741835156 19.0685546084411 -4.20145318161964 -3.8490680639983 -0.405865281758375 2.45975041798139 -7.62952107418994 3.8322478367442 -9.44468237337773 10.0757157539982 -1.26419085895347 -2.08801263198145 3.16316305746062 10.9095543383829 -8.27782493585775 6.46338213791669 -4.29433825287434 -1.82974581896981 -0.00392084090366848 2.25883513648786 1.88364015416499 -9.43078557228654 -0.1826598764058 17.8472642836408 -10.0449477924021 -2.77344152007422 -4.92195444212841 5.32568578332069 2.37408597095221 -3.07364043802658 -0.0936852049248538 0.525710720612152 -4.61801169624185 -1.30150454743394 -9.83214126273625 4.6111706816861 -5.77532651380028 1.83481297095862 -8.61467759360445 -5.20870721195509 2.30113992249848 -3.97445912206384 -7.20255504533106 -11.5344771764074 -3.74656279307603 -0.80027371815517 2.50288816103843 -0.308814408529527 -4.3682186790199 1.4816231878885 8.06955474114353 -11.7116528912695 6.51628754599612 -11.7377929847033 -3.19387013656206 -3.0887313149751 5.62658785636498 5.7464603708181 -3.75942294909246 12.3442269000282 3.3391131819033 -9.98902480432964
Aerospace_engineering	-1.86408296220572 -3.95096623666292 4.66374967630057 -7.87600273447446 5.98005615706534 0.580105172251922 6.20487748037057 2.42293910998091 0.377314248171984 7.73328732383148 -10.1981716315408 2.11174940033959 1.7337601526979 -12.8078057100772 0.634438864942212 0.656671282749658 -6.04730093188456 -1.63998112104265 -4.0205089533014 -9.4601707620323 -0.280698324673464 -6.82005501760488 -0.0723284169346273 -3.23039301729526 4.02764631926807 11.7161403065413 -4.11985342392271 -9.97871719264461 3.19641031536908 3.14911179698215 -2.53405449602415 -6.94109366510302 0.459921608637582 -4.5565700989787 3.65712463982823 0.444446571708269 -1.49771095129184 -10.2689298901265 1.44204622416446 14.284058329064 -2.73182700062478 -2.87559359268084 -0.601962727392798 2.62740565560585 -6.03890515589836 2.3121215795254 -8.08976423072415 7.94620078450735 -0.687997283965638 -1.48603144898171 1.83223622997103 7.50950624859634 -6.93777339995869 4.65928745806822 -3.25175291461632 -0.908158032604308 -0.284900347853356 1.70159605554991 1.07297060420384 -6.82602532235104 -0.626343880728332 13.4797758497171 -7.15122053576155 -1.69859710469193 -3.10275114379557 3.60001607812252 1.44878300471519 -1.31980347996194 -0.668215712348199 0.524350844257469 -3.51249124486475 -0.853253575933267 -7.63697004598972 3.77510334409016 -4.1570013018381 1.82911583671121 -6.44513508788306 -4.50599126150983 1.40231588067049 -3.18563306445422 -5.21551128286383 -8.85754027226452 -3.62802712414523 -1.09243269941122 1.00512837283152 -0.873607836102484 -2.96789595098906 0.451546656131351 5.32923119561244 -10.1899328423897 4.90256936775708 -9.65596765882004 -3.59217307256245 -2.61129215196712 4.21916732885634 4.47750861462891 -3.58937862005213 10.4668911268668 2.1874588348744 -6.99996474095864
Aesthetics	-3.7309154455012 -6.26346660950459 4.18359269989216 -8.65490405614245 7.96279959303284 1.01208954445459 7.92635790446759 1.90991342288742 0.185457510831576 9.90069869414542 -16.2116916303115 0.617458103398596 2.23770427281639 -18.3764334736556 -0.222042854140984 0.446408994210419 -7.18398797576363 -5.45988424043188 -4.50913227305539 -12.0170590317318 0.0239311953376563 -9.13749837105897 1.44621824053549 -4.35474038300063 5.42350080674231 17.3655766685045 -7.10997796380658 -7.79046225716367 2.66216670597983 2.69614175304597 -6.29334549805928 -7.58027968214998 1.0242418077705 -4.43218568299078 5.01290505274378 1.01720290296747 -1.37209445447815 -13.2478685221605 -0.739408952890179 19.1453712303332 -4.71686587781893 -3.89379668493471 4.5549080263666 1.78171986267042 -3.93102232129451 4.45792918830512 -6.46594929119543 6.92343982000953 -1.41401370791202 -4.4562497090863 3.25630832471049 8.34711024270199 -8.91672675521211 6.37038825629957 -2.81489008377201 -0.755257844680077 -3.74644659551402 4.24083366340777 1.87910251167498 -7.71799957783443 -3.68418024651861 14.1664742289208 -8.64697625212883 -3.66153167229676 -3.53023638630912 4.74791336698891 3.28325257834993 -0.499078109040678 0.640331048792653 0.887587084788495 -7.72747786148997 -2.57198035617061 -12.3882821189784 5.62942201814976 -5.80923504136107 1.37694741017112 -8.00486095961894 -2.93783422337989 -0.513878534728259 -5.55913109554094 -7.06626312998441 -10.1748586552286 -3.73601063876569 0.786744842883737 1.58585585018395 -0.17851934995647 -1.51279566185462 1.83618439958475 5.338642927422 -10.0449651009895 5.35504399125605 -11.45182648805 -2.79781932473458 -4.72804909909504 7.79492865410527 3.5696265834792 0.163820884220955 11.9698760674116 3.29214075669402 -12.1029757612733
Agricultural_economics	-2.63908176217374 -3.84343501234486 3.96714409039876 -7.4136795536847 5.62658355952148 0.795464511564182 5.49136989433374 3.38743054402507 -2.56192419912831 8.059437430414 -10.7091340787456 -0.237015365396685 3.39859753696599 -13.3379637484846 -0.257066119242978 1.5991157714093 -6.66763926418853 -2.24703479298908 -5.30899268887167 -8.29434304658777 -0.221128458630364 -3.92890205219543 -0.71078340288745 -3.06598615821445 3.83352625544994 11.7690800416452 -3.68048745747774 -4.75688320002544 1.32029411618803 4.42474721637406 -3.289476799075 -6.43192108690332 2.83830517411037 -3.42637222809038 3.1105216438408 0.260702415038962 -0.561526581656967 -8.5122817327637 -0.178842891734553 12.1179168302926 -1.91869384999759 -2.85413116353031 0.839079959247293 3.95915714670294 -1.63844281699626 5.10581979703021 -5.45383729501819 6.40767599153086 0.0444488652289075 -1.151476642634 3.24180074883746 7.28138697609398 -4.87016787578561 5.11117997872695 -1.99338298191178 -0.148323511036758 -2.47761072978707 0.677537178591387 0.433313172640857 -3.27439147371245 -1.31891265958978 10.8614444412617 -4.81321955776651 -2.71761615561885 -2.04734998362404 2.20906190492938 2.00047464165579 -1.78155585470522 1.7555380191722 2.65249592166927 -5.56228532820978 -0.564472961270551 -8.19435215915094 2.86523288531888 -3.88382294196928 1.67300390905066 -5.90683350111966 -3.9181317284439 0.287951092692245 -1.87080841641711 -4.41784336835731 -7.12131749787498 -1.99020512816645 -0.450712797496894 1.98393517852258 -0.774631248356759 -0.938843223552346 -0.832003183610059 5.48798916914912 -8.7129952424897 5.16687432958029 -8.81389229442656 -3.81782461114973 -2.4171518844809 4.54852411894527 2.21250987675042 -2.29143744302293 9.40264416696343 0.717079938411375 -8.53857857928233
Agricultural_engineering	-4.01351709517262 -2.6352575542015 3.67580786069132 -7.63125949689183 5.18992595060639 -0.872400158063192 4.99811784029842 2.29428600797702 -3.012687223981 6.68579234231592 -10.6102892167706 0.604466416384966 3.98382269474787 -12.8252242276848 -0.215106757357385 0.196436725022597 -5.90708845162824 -2.08407741052969 -4.50993791379232 -9.07743960125421 -0.965271919508569 -4.47924647507065 -0.371075625345891 -1.19356958878481 3.95589639010853 11.5224297094583 -3.73433605678427 -6.35343647720466 2.30139212585195 4.09557516553087 -3.94750234645927 -7.18887649021005 2.29091588074745 -3.85391113320498 0.508824821399772 1.21939749182008 1.50853024888203 -7.3811620929901 -1.35904897418479 10.2911840085541 -0.0988975422076228 -3.12597056883572 1.0615740353509 3.1728698968077 -3.31266341871159 5.66748415763438 -6.37503973267135 6.58536721244559 1.67254547786559 -0.770042702828242 2.60217172418984 8.05915691084494 -5.97787436545475 5.77083970268043 -1.20540635102763 -0.0657371897152291 -1.46527591889124 1.64500856912954 1.67156551434435 -5.65042363542254 0.548259375540748 10.4107668530701 -6.26131580099938 -3.26135148861628 -1.97995485986178 2.7434967545618 2.17842775637661 0.376258276040413 1.49746189109916 2.85657115494381 -4.26577458546789 0.362034758792435 -8.18628646620022 3.63145864644161 -2.03726838167468 2.04120233336661 -5.91409343506226 -3.03623005574346 0.759840237407145 -3.56429070045841 -3.85587937672483 -8.80864855212031 -2.55298252261968 0.265928892869972 1.70132562013062 -2.17847018223622 -1.11546736464782 -1.36784225410491 5.1481347058508 -9.02987583791443 5.21588930911754 -7.70374437082698 -3.37834969764925 -1.46038533184677 3.12147622541621 3.26642605566914 -2.23357086035443 10.1942840884208 0.910456761305259 -8.48174220241657
Agricultural_science	-3.96284570368818 -3.24858526788309 4.8029162297364 -6.486617866897 6.84541047085344 -0.342302222688678 6.68102624907735 2.82082335851122 -1.76118523645944 8.20543645471857 -10.6568843322882 -0.174862715123426 2.64907443232046 -13.1506956120989 0.271863172837264 1.11403157954906 -7.53613994914305 -2.97382566740411 -5.79864805339089 -9.25262437837655 0.479070153359571 -4.01953457285605 0.0714027424536324 -2.12803319196651 4.04292429600027 11.8846673265208 -3.05395271529958 -5.83145843871627 1.09358417774219 3.36484697037035 -3.96252210945734 -7.26727143379677 1.47668599313756 -3.75315001471364 2.20254660037455 1.72568861745983 0.363388450562783 -7.90984513346929 0.490009020941386 11.5014158771835 -2.03262020879906 -3.2045221859282 0.3506873746362 4.32677979796645 -2.58372674541866 4.62352343850098 -6.24873384761568 6.82261650771986 0.229117516988908 -1.71267627779757 3.63521254006359 8.11378559980765 -6.55696300244931 5.35424856400167 -1.40599338394947 -0.417765064067203 -2.33750627582909 2.48518193475281 2.24032793466413 -4.38780102322916 -0.652256623879572 12.453339232178 -5.24346685448087 -3.12989693150563 -2.45895263385265 2.9745474033305 1.70244954912723 -0.865418025485258 1.96584751692914 1.26019552043528 -5.82237365542779 0.669154179431902 -7.79642732741347 3.96596877393973 -3.28969229389285 1.67165841567663 -6.3558892316899 -3.62456472854318 0.637289496195129 -4.49133403319949 -4.13106337226921 -8.22064137140801 -1.6070462003783 -0.448021496136638 2.61020892473044 -0.961632966754442 -1.78012892532676 -0.797762944218796 4.60323623353243 -9.14664471525127 5.12726950383306 -8.2811950118631 -3.25246156545417 -2.64394915685816 4.61155242665806 3.86406099382554 -2.9787040999013 9.03621798165424 0.71585377060895 -9.38750381611021
Agroforestry	-6.80802018065897 -3.70282507382379 6.20513750020848 -11.5869003064185 8.99544832036808 -1.07992603240008 7.94026586158742 1.3283137165841 -0.921420742381979 11.9109787285541 -17.3214161110744 -0.92224094239933 5.83649380312278 -19.557248923804 -1.45247343954973 2.19808300043615 -13.3653579128872 -3.98734741708764 -10.0155677826067 -13.4112996229268 0.174160557024793 -4.66981366662476 -2.03644501431027 -1.79224639482607 2.72373079155651 15.0992551616392 -4.11998741593771 -7.25282306215754 3.76934006341052 6.25603812192139 -4.56254996947436 -9.52792109654633 3.00043846721829 -3.29525936759094 4.11650355800718 -0.48848251442337 -1.03106874335788 -11.6102561680728 -0.337857682428456 17.7494002131928 -2.28056680840634 -3.50053500835879 2.23594054816574 6.1475147098318 -4.67571461534713 7.45571724932714 -11.0619810919986 8.62670121710689 -0.175111316372732 -3.18537455231596 5.16469606930206 13.6730830830538 -10.7100400300988 7.81207879616137 -1.02737370737851 -0.977575691866003 -3.35952567029066 2.859131171444 1.10628569693111 -7.11034406651849 1.25496532787818 16.6828509861098 -9.59782301023677 -3.85184982319473 -1.78901414155642 3.99932288326768 0.418150638298995 -2.00182845971166 5.93884419685219 2.04204555593398 -9.13449945063862 1.57415033566045 -11.3775556728185 5.25898347963471 -5.0229146972659 3.48533933149556 -9.38427707664519 -4.8902886663225 1.91475580433277 -5.63888837705217 -5.76728206935098 -8.31612607759051 -3.04659104820515 -0.992623658128196 2.37582768259311 -1.53759530138966 -2.35706251199737 0.183197397453199 9.57913877484361 -14.4621499223084 5.96763433996689 -14.9777781411174 -6.94326153338888 -3.32188451020282 5.37557075374274 4.31828589394393 -3.79541803805561 14.539453775293 1.69279253203289 -15.2811294280113
Agronomy	-4.73597730785381 -3.31243669943003 4.97288016607847 -7.67015051211249 5.7905517954518 -0.405027143776239 6.87428583148003 2.00622474172063 -1.94232857933243 7.80648445187929 -11.8093480680773 -0.640216924186214 3.01676977346253 -13.6983402405498 -0.552299995665734 1.50882041374869 -8.80861307223385 -2.29184348822607 -6.81260689690855 -9.18813041186264 0.104764975435617 -3.10718234316204 -1.55655536510893 -2.87598614006808 3.10325954581022 11.1297775014545 -3.12758465435506 -5.52118396884501 1.8475291607868 4.58408942701259 -4.29110323265873 -7.35634561650837 1.97660927849989 -3.06748334799778 3.63901535855922 2.17811573798088 -1.31122710367571 -8.04832573102734 0.668271193822498 12.441641235572 -2.13087997348204 -2.50755493483017 0.318111350097087 4.56479003920732 -2.95269798074206 4.98819708497122 -7.28733265021688 6.82259991763412 -0.208860256973891 -1.86891107604817 3.46208164314356 10.1680232115704 -7.65987660090345 5.73642326542568 -1.78053697795178 -1.13231210458724 -3.17712182096199 3.83836823925079 2.13196364246051 -5.59896585627412 0.361553669306277 12.5054283423554 -5.90400767669643 -2.22529004514339 -3.08018340221517 2.76212094731271 1.66338320085311 -1.00993227902283 2.06702520336496 1.72867761278962 -5.49956412158787 1.49419034383168 -8.55762864795646 4.05916918725763 -3.30299361486997 2.7234088860419 -7.0336371651967 -3.79602591711091 1.24856056965321 -4.68019396824285 -5.50807586314506 -8.30128706377095 -3.43260461719777 -0.764828936998982 1.92980509241666 -0.52069834548615 -2.08573650604797 -0.642122293195246 5.41405207293119 -10.954559042959 4.92566175550157 -10.2015091216924 -3.81513474924817 -3.5732277541588 3.94553575751989 4.09241997180306 -3.85718093060105 9.80877689580644 0.798949263908621 -11.6706384578594
Algebra	-4.06217352731656 -4.62131496503015 3.99210827009246 -10.2952096189764 7.92217402325777 2.23465555320638 6.45673662753301 1.7562243868962 -0.891053753389893 7.25717503057977 -12.0324612509372 -0.831687560121898 2.42607429159927 -15.7529586296918 -1.79681724257767 0.388222209242246 -9.10148975517595 -2.07460592380475 -4.88902006838064 -11.452191759482 1.36741064693494 -7.35125766821543 -0.144866938045131 -2.14146357193061 3.36687490671428 11.7088323700647 -6.03310461943562 -9.92583022913654 2.7350419171773 1.00421085819728 -4.21656222161951 -8.80061415229362 2.26840694753536 -5.13206943268981 2.62630871212391 -0.631172138431103 -2.49565280129697 -10.9036777858327 1.09694917431206 16.8508205121062 -4.45135064823801 -2.2235952535689 3.46361391249009 2.36409095376209 -5.96152323519895 2.02857133734293 -4.22553742333288 6.84521077177396 -0.992373324257917 -3.07438801048205 -0.78321911706341 8.95212809239957 -8.40549777888039 5.12163194542951 -2.38837710806231 0.170830489017622 -2.16168022510382 1.59003211702387 1.93963527769347 -2.98493148572864 -2.42993682030124 12.5592547888325 -5.74399420436627 -2.95039557778672 -1.16821638996962 3.08256031813797 2.50954194887331 -2.00943176857062 1.26632519937278 0.0743466192864312 -4.54073206721819 -1.59701579770174 -11.0110227353827 3.29836475505197 -3.42020319795549 2.19207663698275 -8.73118154554204 -3.59716653401638 1.09621599466242 -5.14746909367326 -5.1003670489801 -6.87488359242631 -2.29037077403066 -1.26351109107272 2.05192591750071 0.300776113687648 -2.39034792778098 1.20451735174324 6.1238290877437 -10.2499097336652 5.72571192377881 -11.736217629063 -4.34547785091936 -5.17812900901962 5.47524685528669 3.92739730852869 -0.893665686122086 12.1538441003498 1.92800868044067 -9.84703092476665
Algorithm	-5.17345517500493 -5.8371717522201 3.52597414344379 -10.8492775448502 7.99373956685104 1.39210155176321 7.22137624627654 2.273149367602 -0.727161370530423 9.5066936275603 -13.0127930316686 0.4024996436669 2.00125706062045 -17.3087303203944 -1.48071420122542 1.1223708630961 -8.77565829427373 -2.11371444952289 -4.46919387800886 -11.4084576574871 0.156827033309909 -6.82754667811177 -0.159626898913657 -2.70399471019818 3.62724112158673 15.3420026161538 -5.88356811461965 -10.4242968214503 3.69579661554266 3.30708559045115 -4.06731500445595 -9.0044810051168 2.63734163871059 -5.5997177845084 2.65069776812853 0.0924524594988972 -2.44081620861615 -12.6384008420163 1.17274016652611 16.746367944168 -5.96217882752747 -3.4606931671535 3.36385370300059 2.64938788857734 -5.97364277010008 3.11247991294223 -5.02553185625763 7.69397772816797 -2.0463822042526 -3.57050859480139 1.03570239636271 7.61955849475047 -8.63587689791457 6.6180982550066 -2.15423695785895 0.172397874489791 -0.701195388325536 2.0070871418887 1.76252537129432 -5.26988964399999 -1.33611834592509 14.7351927631123 -6.90854238594084 -2.71403415970776 -1.35072633659415 4.18471248047599 3.16283305990174 -0.702668659225695 1.36795292809271 1.86648647330564 -5.85078335776286 -2.70207038324705 -11.7016492561734 5.40706164963025 -4.38740503395713 2.01633034480629 -9.91723160363385 -3.68081791171495 0.659540890069664 -5.7159239207023 -6.40221464824554 -8.5183477894837 -2.76921751881827 0.515717361370889 1.73757169362179 -0.0619765008751673 -2.14472792170581 0.832943806273495 6.76239865327029 -10.4893392940816 5.79415446041688 -10.9005371855912 -3.17384179854728 -4.97828482002072 6.58113112051629 4.10488831296054 -0.607054972913847 11.6787532182641 3.08291513750385 -10.0079233679417
Alternative_medicine	-3.50840310630628 -5.87303740530682 3.44165994142054 -8.61399992420291 8.03143808165541 0.211189560669962 6.70429208741657 3.28722203674934 -2.04224303046794 8.64826476557317 -11.1922636470443 -0.163438132937515 2.2600666086475 -15.0790994962452 -1.07986075293096 2.27097711234532 -7.82667389348917 -4.79439634125931 -5.63029368983972 -11.1691769192787 0.18744527126273 -7.62865203752887 1.11416000324347 -4.62486678866867 4.37874587973007 17.5318496171057 -5.64864684723902 -8.49576981679957 1.06629165444948 2.31191022721642 -4.10528948790518 -7.60200252970404 2.24093940372925 -2.96037097740567 4.34558923614166 0.71091805460589 0.307206317422437 -12.827430973651 0.236336976737644 18.4068855893916 -4.33460416398766 -3.55129727267285 3.41042051169206 3.63219348720944 -3.75461454093845 4.52252974364296 -6.77780866740005 5.69434105619679 -0.710746588385931 -1.24177688087846 2.96132154840941 9.08592099085564 -8.61143291187605 6.16878404796967 -2.29840785474881 1.06611843904988 -1.89041204458664 4.02000581097481 3.10701594207464 -5.52570201488817 -1.81019124366114 13.9423746281225 -6.34156850708303 -3.66406352372052 -3.07159542213327 4.15200502641519 2.17027505910954 -2.12579975884995 1.62620563053349 1.88164925312884 -5.98826255557294 -0.363233990111956 -8.65550305124484 6.80162162901125 -4.33380145413904 1.34503492022677 -5.8637110537656 -4.78075685257477 -0.342252504604033 -7.21409526845222 -5.10803348570224 -10.5087194291069 -2.22119228317602 -0.552312521727768 1.6484196651123 -0.537439541224911 -1.44236646040686 0.224110484443409 8.34346339143661 -9.38148898352992 5.17415641230337 -9.87828546182335 -3.33564661709844 -3.30151894762938 5.1657836396742 5.84190207862522 -2.12619735762907 10.2069660625934 2.09112368708929 -9.85269113526844
Analytical_chemistry	-2.37655087808603 -3.43826016593968 3.49395396963704 -6.27169089959218 6.50070136341556 -0.266725882213785 5.21573962175028 3.52945097021459 0.720767845787238 7.56027113291762 -7.39635043938609 -0.441670448392311 0.88015649805975 -9.62261104626698 0.147052475869532 0.278996615580836 -6.16760277488446 -1.62278471743891 -3.68714447736549 -8.66562518763408 -0.493655157874894 -4.932378875915 1.04098896524192 -2.47833880367839 1.70595658043117 8.8574629033578 -5.66744284659413 -6.01490009157996 2.24127683244094 1.89143703140076 -2.48386870030664 -5.63395964414144 1.26996972136722 -1.92975016818779 5.10695605742491 0.870130501761762 -2.23436294460678 -8.86415835671895 1.74201633797999 9.85343131136082 -3.31220042923316 -3.32451627850922 1.33745675452316 2.55120379313217 -3.6848462056863 2.76688433084045 -4.08291843548462 4.66410555141387 0.798826695712555 -3.01004493793525 0.362177916056871 7.95045996161971 -6.92445555861618 5.30306761897916 -1.46189156287039 1.22553387280602 -0.864027461047476 3.14001245370308 0.852393834333898 -4.23485365413595 -1.63857338213376 10.3027546073448 -5.51962994466898 -1.72685595070028 -2.99633895158979 2.98973493268896 1.67487943254526 -1.26669705212909 1.4522365489405 2.52124274662226 -4.52097087995643 -1.52639283784416 -7.46656921434413 3.76647782754553 -2.66902808480632 2.51690354316899 -5.15826393090351 -3.44624487160341 0.903564161304065 -4.59221738964292 -4.71209105603008 -5.63700429619962 -3.10557986564421 0.206700113611687 1.68693268725288 -0.230621491952014 -0.793460932583365 -1.44997401158983 5.58920629307624 -8.97480683350051 3.51915300147224 -8.60076720296539 -3.5299264865362 -2.60289108733501 3.3673690763901 4.55573362585135 -1.69818547570952 9.15336507844364 1.60000818379052 -7.46810518250478
Anatomy	-4.24922610511845 -6.31664880388777 3.97390144486713 -11.4255184776448 10.209486344443 -0.595580399425583 6.60364154120312 3.23143853401497 0.791163296411287 9.7137233852584 -13.8829596897954 0.471605705216276 -1.60244668327665 -19.788786487245 -0.119282354658594 0.291096073718301 -10.8184688577694 -4.31064749172663 -7.51255010584826 -12.4663017222996 1.06682071347762 -9.12395914988938 0.31315474269096 -6.12281414998392 2.65673550195435 19.2776710011051 -8.36395678662534 -9.9412444374719 0.895640516290947 1.10037968832961 -3.78315195652213 -11.7104768930025 0.697588101651058 -2.69419166880839 6.87993725696189 2.49925642419961 -1.48056394335863 -16.1308881189373 -0.0574707291550404 19.1356033160203 -5.11912745922064 -5.03763455703797 3.57285202834321 5.46076488706924 -4.71915654556538 3.37486461323661 -8.8482820399425 9.29704528060592 -2.12548857589756 -4.61273156978235 3.29600680832041 11.686650014192 -11.4205762384528 6.12476787279086 -2.09954424612693 0.925323091364715 0.639141078412159 2.96659865279092 3.77904422661311 -10.1732281707448 -2.09003568401067 15.2024024878023 -10.1784451479173 -2.59588637581433 -2.55305423693027 1.12798319646287 1.04508051870537 -2.85136067055047 3.6762844365928 2.36278639931934 -8.49020401769122 -2.60527465820097 -11.4370319861265 5.3008093485185 -5.85504057548472 3.84061752420882 -9.17059188708645 -3.8670947476237 1.83843910218388 -6.36832874053563 -8.85498754029349 -12.1105891112186 -3.33329808861076 -1.00156001118017 1.81390077208618 -0.369221519274074 -3.02706100637592 0.842205155150415 7.14764945706614 -16.3833916330899 7.10527593761758 -13.5535701921349 -3.06941676174732 -5.37148509692638 5.35022709176179 5.67631103134599 -3.7703475016693 12.9464907796809 1.40569740763715 -13.443935085803
Ancient_history	-5.22566854319276 -7.39023915871217 4.63783645925211 -11.1398340023161 10.1835911540978 3.18033204531207 7.88957173924236 2.20630139499829 2.76476134994867 13.4366186750681 -16.4956669344371 0.100972894953155 2.39163937840058 -20.5438297627222 0.728137582605352 1.70127297665657 -10.5038326347864 -6.8085396475826 -8.1865067557411 -14.4633600849158 1.241521058647 -11.1537480519921 2.41773151972767 -2.87800312219838 4.18277814812298 20.5502422250024 -5.64993188049761 -10.4748447472364 1.23198249527924 3.11658297911553 -6.05291918797803 -11.9385375422323 2.18020465378429 -2.47328505726537 5.2184849470503 3.85818289948242 -5.03398586674903 -15.1583342914628 -2.02922917488119 21.0987521225896 -1.18045126673101 -0.648579077385931 2.21254454703609 3.69364771199283 -4.83181287511954 4.87873900160229 -8.50229178120773 7.70338157228326 -0.611852994506294 -3.00879913504809 2.48642331981612 9.88757010927925 -11.6085236140434 11.3082663480896 -2.97683071317761 0.595114727344841 -2.36803047742639 1.6220206314678 2.18036792830277 -7.10470262075146 -0.040871944947869 15.6695347176612 -9.24102755369599 -4.6883839723515 -1.47249536963088 6.90471205629157 0.796971819980469 -2.47543398424998 3.16156788639243 1.31807475223268 -7.76317775308949 -1.30801959410259 -13.1286441151084 6.34016376542445 -6.29102592206097 0.372601324297492 -8.79727373159616 -3.98814203396401 0.702824453744258 -7.00591178009851 -7.81252301002474 -11.6945947582017 -4.65560363544601 1.79021010559889 2.50172495068977 0.270459532135201 -4.47805272670761 0.199464482164629 9.30714640724014 -13.1563644129668 6.39971852917369 -13.8903253201228 -5.35029612349343 -4.35671037382171 6.83664801951632 6.00244958792023 -2.57624346426853 12.0360930936761 1.99170554780871 -11.9628962352958
Andrology	-3.17719094202181 -6.33544333523795 2.62790158046101 -11.1953609956808 7.64357451334087 -0.945707101472072 8.10445334871763 4.84576671658194 -0.751463854389621 9.59092156930514 -10.8562141524824 1.20803004365006 0.51581410339163 -15.3707309063172 -2.88458694085045 3.27064423490551 -7.60356985768376 -3.56778941062402 -6.50166664718047 -12.4184080132398 0.508878903218949 -10.4325429731699 1.40501121123229 -4.69918201343166 4.13766426516424 17.9150285228783 -5.25889475433314 -11.0705148613876 0.631525549174431 1.18635017334357 -1.13536822714897 -8.59344640264426 2.3514430619427 -1.99931900361516 3.41292853376009 2.27708898565399 0.159966744976017 -12.8105908694303 -1.46642845627773 18.679245304325 -3.22080049299899 -4.25973851541486 2.24254929178572 5.16587835043567 -3.62523965035052 4.73950810476975 -7.70570997213578 7.35279318358501 -1.34667045269583 -1.36039483019075 3.18175428300549 9.4112604640192 -9.15103134994506 3.76717233604154 -2.56627587734193 4.33256168246915 -0.71021072876442 5.10025535864821 2.38510303956399 -8.75611232613451 -0.797450495295772 17.0752914579809 -6.200186754578 -2.44713873812239 -2.87852462631709 3.27383715344082 -0.248836929807677 -3.12464212571425 0.135829425831768 4.17273994506407 -7.11078364680128 -1.02553611238176 -8.8010667125738 6.16154105979387 -4.38095833429476 -0.326281052920804 -9.49175540992803 -4.81875014306338 0.708375599311827 -4.0273684039864 -8.30509265915522 -8.90742249687096 -1.49757527795964 -0.891739360437485 1.19148087485966 -0.128864385792196 -1.94618821694816 0.927334351295019 7.26716190444666 -11.7144566397712 7.46666712908846 -11.9771872960277 -3.72390925275648 -3.34960249956805 5.34415477084734 5.56632089979926 -3.60945716038286 12.2590635853393 2.12358913841908 -11.7688450678255
Anesthesia	-3.38928572845886 -4.36267555418067 5.4344824194501 -9.65940915092434 5.42600742012556 0.374689166612167 6.13329806890488 3.49627241209677 -2.49012864006267 8.26067020068621 -11.3519797473429 0.463648209457545 1.63994715835003 -18.0335795012276 -0.551743182435468 2.39767090632811 -9.57267723691676 -3.73381934571523 -6.60616512406456 -13.9680778520637 0.688805745883436 -7.91699104231223 1.58903491927563 -3.20904563819382 1.11904034768911 18.7182237392932 -7.69460334790852 -9.58927150743509 -0.162415530872506 2.39409404009118 -4.1110666501008 -9.90457220891384 1.09989248014554 -1.58763411071298 4.40632205453814 1.7213410526903 -0.751954166032872 -15.9960159526612 1.643282085428 18.8249437283896 -6.82281245961335 -6.6540615468902 3.27682322376122 3.98667695692669 -5.73858689939302 5.9197195137332 -7.95513125583806 5.43063653545241 -1.26666084615419 -1.35890994544173 0.569041409330486 8.78282322834164 -9.96905860787874 6.58102225477308 -4.40693541145237 1.72262381254088 -2.2263905584924 2.58975273862423 2.11964091852966 -8.86668629710989 -0.617391587337158 15.8900616362029 -9.54568842221926 -2.12493220497652 -3.9831989375251 4.25284072291914 3.36939314995654 -4.24982175903478 3.97879475065617 3.39502169071337 -6.904199033837 -2.29641618120105 -8.40562882593798 4.72635711323906 -3.67098336369334 3.12561667623146 -7.56572371310581 -5.55539899981948 -0.190761968593945 -6.67257637092271 -8.16772194909119 -10.3615215192481 -3.53688052164808 -0.455470595132667 -0.243383865587561 1.6053180105939 -3.66548271633316 0.260308282780337 7.89855552224735 -13.6468350795541 6.24677461333229 -11.5150476319655 -4.93558728403912 -3.44502778484901 6.73674543603866 5.22916620450794 -2.33029395328691 13.7299344816492 1.50023901512837 -13.3083698421684
Animal_science	-2.99963001690641 -3.68814837262666 2.00698960576288 -9.1655011462085 7.43533517669184 -1.73324831643106 7.12401402624015 3.38836315294606 -1.73632809241385 7.50436755445189 -12.9359281462959 2.07669470813902 4.04019395204063 -14.4882608214918 -0.622865729747562 0.106893899143045 -6.6713138483204 -3.31752546168416 -4.23761313088549 -11.4460456698216 -1.55179375877847 -6.48470243170669 2.94748857222752 -2.28175385546795 4.63753618761735 14.7924926193537 -2.6213759564371 -6.29729145102192 1.39612875945006 1.21453703628177 -3.3179649400327 -8.61430440678543 0.708016168305834 -2.72815611847936 3.86214621318554 3.29306793456023 -0.392043921706456 -10.7171499740402 -1.25872030280048 14.6995475566078 -2.24409561078686 -1.64172825051925 1.69174297671256 3.09144562381553 -3.32984874389919 3.65202357471137 -8.1856451095593 5.03338962446828 0.334044415580105 -1.19264791069998 2.54684978647105 10.8377934194445 -8.86277222889469 6.15777285047017 -1.29251373872765 -1.66393511610753 -2.8054405538106 4.24167673111148 2.15785059350597 -5.67899606561068 0.222958900875958 11.8669317563415 -5.6805918198348 -2.90287858647021 -0.851710683681768 1.29855396691908 4.21946359108616 -0.977753590554903 2.74565939645889 1.98138472504488 -5.2973307277889 -2.13050531814197 -9.04171456407619 3.41951840239136 -5.53170089328156 1.83399150839863 -7.32050514930148 -5.68959755047636 0.516523314814171 -4.01073516946196 -2.26256222711557 -8.96599077120153 -3.30341878283813 0.595647997044856 0.349903555540864 -0.374016586551675 -2.43268639467745 -0.328286146651525 7.58215610109104 -10.6002906838584 5.9180025298724 -9.22369032426251 -5.81165628445977 -3.49306411737382 4.00998604236925 3.28679372149184 -2.56311863702056 11.3256556188828 0.807467211991776 -9.08631902711925
Anthropology	-3.44575091545959 -4.14496159204254 4.23768581956694 -9.07479394049187 9.01538021930446 1.28593558722309 7.35476643757592 2.44266405869932 -0.389474874885069 11.7021673327694 -14.1199841575043 -0.747168270472608 2.35683585570889 -17.9318152372786 -0.350881798033856 1.67456610680115 -8.62486270402113 -4.76883492377135 -5.86515429607977 -12.9995389903263 0.301958233526823 -9.41918702956536 1.72752434393305 -4.25152297887003 3.50454475466948 17.5949704517098 -6.79914828672842 -7.56311399501853 0.208457273357455 2.57122645347592 -4.13289245920243 -9.19838501350182 1.7036152511133 -3.71203968167471 4.70324560453352 2.53457910061708 0.182545403449478 -12.3488253334345 -0.709048800320806 18.2685773505853 -3.14114628042661 -2.9261389797192 1.65857937814516 3.07255510254877 -5.45455261470193 3.79835455627968 -7.87874475636532 8.31991516058313 -2.6397180582384 -1.83411622548397 2.123675127674 7.6518659150736 -9.21529884249316 7.73124767770096 -3.29524936514708 -0.338554006838755 -3.21098459232337 2.80010642724926 0.812189330275525 -4.56582445306261 -2.72789632270549 14.9917327093166 -7.21439069504256 -3.97518671354672 -2.87434262623319 5.61206285963206 2.8760864344105 0.47887440275828 1.94643105659463 1.75801453646598 -8.4234825581751 -1.13058666600273 -10.6824062170016 5.19251038333591 -4.45568410576403 2.39767707006882 -7.51583729698753 -3.38907893093746 -0.772951770236314 -4.89150002486945 -6.49799258620441 -10.5594953155414 -2.2003113510657 1.26386183430102 2.05674167926263 -1.25608147249377 -1.76004730458041 -0.181101084216195 6.66136819728384 -10.8130027211824 5.79264568880352 -10.9657078996001 -5.35242774273668 -5.88103951316111 7.35498183357473 4.27235309779024 -2.37814988856781 11.0054838855988 0.0212365586066781 -11.6294855534996
Applied_mathematics	-1.88325547568229 -3.78887872350198 3.11171781108769 -7.45293482554552 6.49032231066096 0.86875582962658 5.60016457662221 2.59452624794073 -1.77902996269794 6.29029392077859 -9.19990669452788 -0.243865860471022 2.73526533404814 -12.4660984594359 -0.153124116744286 0.642296296657383 -5.97245589514675 -2.0232472405424 -2.57687090926876 -7.6482762086221 -0.183863657695105 -6.34315077297659 0.411287557270548 -1.91854684522961 4.95306637754169 11.0641427386548 -4.06837759281851 -6.30503897488834 0.591187956445135 3.05065483464269 -3.65856978765668 -6.07372763078382 1.55106700027556 -5.11362189990805 2.99331162548118 -0.0794765420007666 -0.955676323610416 -7.2244252580488 -0.175032573563106 12.311162473457 -4.43163956936505 -2.67127716663304 1.17599209553762 2.73076168576998 -4.01754255663091 1.61791573766963 -4.56124054822139 5.49794466562132 -0.745001184274685 -1.79344186636284 1.13399585172533 6.01600804422345 -6.33277741404741 4.80902915184998 -2.33641973886 -0.00548436791499621 -1.74229851110097 2.83383366399522 1.53922481823098 -3.51340002779845 -2.21537874280378 10.2118996365122 -4.24184232242165 -2.54923375692819 -1.50034594366859 2.64072472815298 2.76386554101428 -0.491905997601137 0.116565997999512 1.02660058804258 -3.96660514143964 -1.613012388559 -8.25248400494185 3.76819451093157 -3.63717098322828 1.44034496388212 -6.23727002237608 -4.40923221698637 0.839977139011426 -4.12697489978008 -4.72637489301923 -7.11443849094958 -1.9836480079339 -0.0426416120275879 1.4459362900379 -0.0489444596958883 -1.08796407429911 -0.128076649785261 4.28706529344903 -7.53004499831332 5.18827710034024 -7.62409842362869 -3.05113716682196 -3.64502810700078 4.41636887176962 2.61150729058269 -1.07860303655443 9.80365443926654 0.737503881520188 -7.36043574672222
Applied_psychology	-3.09761523272189 -4.61766528542053 4.05646590130281 -8.08925976935047 5.13013010754935 1.355582465179 5.47515159971168 3.02790164651016 -2.39451597504021 7.03593806796692 -10.1054990200445 -0.183314213458761 4.02836978121374 -13.6349709147947 -0.579172599365656 1.32717454863157 -6.18612982611372 -5.15766077714128 -4.14715740043726 -9.66633259859308 -0.170315533439051 -8.72629278422868 0.734691754354635 -3.4953158791912 4.63230741757936 12.5617425214906 -5.14018236235713 -5.94672993105985 0.698107139941401 3.4558507193025 -3.04658956903606 -5.53813689057688 2.67456290663205 -3.40718159933331 2.84799438334938 2.17301316528926 1.11610407625075 -9.49256223483196 0.642691131607523 16.0123063206687 -3.93683034236292 -2.91801300215572 1.94702761872708 2.60404378901774 -3.95482774414795 2.50152359705917 -5.5624948482039 6.65552218830167 -3.07348545867172 -2.72287470751227 2.68129301001777 6.52230038670932 -6.67791912739971 4.85560404635219 -2.00308362905766 1.25927573970205 -2.65659153655803 3.73026175435244 0.452788149180888 -5.06395163954064 -2.8924640783399 12.3674571103507 -4.44174408859072 -3.77857725780126 -2.38113238833725 2.18650782277026 2.35492115886695 -0.379452644477304 0.257597212019934 0.535914244651987 -5.83719539493016 -1.99304196786101 -5.67486354071575 4.70295254913715 -3.28308302167992 4.28058832947236 -4.77222188335037 -2.37226501171065 -0.227913760911336 -3.581829016969 -4.87950739544755 -7.80405378438866 -1.36800949579211 0.557353960372365 1.21409453216218 -2.65174739690648 -0.225310048576827 -1.91168292620941 5.91061415877459 -9.28825977702565 6.78179092819696 -8.50293337687722 -3.30574594664639 -2.52160214456945 3.9583411367582 3.63714706471711 -1.59831529462082 8.48233845508506 1.11128627605895 -10.0857429390593
Archaeology	-4.44692696738743 -5.06747858697156 5.16127558061482 -10.0342359459191 9.34923716587158 0.969401172925429 7.86028687758738 2.55894451831455 2.01493936765832 12.8576400360003 -14.210228918436 0.326854914240393 3.15758759137502 -18.7794948402296 0.546010691678349 1.41903704009779 -9.26247685035487 -5.04960294744863 -7.32433451867564 -12.7669312948775 -0.037251629142948 -8.21329520500863 2.27279507594524 -2.87190809561337 3.57240853034438 18.5777474273579 -6.87468977675344 -9.0855877286223 1.57124268966464 2.58978594478837 -4.77786186822999 -10.7115281251935 0.668201101770193 -3.5854998131381 5.40436313883382 2.97918633708364 -3.07479713969212 -12.6203966401345 -1.51556118253362 18.2555668718859 -2.91709938217002 -1.83155622843226 2.46362780578818 4.17279541362263 -4.92944167311421 4.33128722122484 -7.03223600995302 9.2740361650189 -1.7564690573467 -3.23956918835532 2.15387306866644 9.58430965491166 -9.09232942667676 9.59846235265531 -2.69952434474743 -1.14132190726763 -1.96169654345231 2.49604790698628 1.01249926924385 -6.30509960756486 -0.546773246943647 15.7828834421942 -9.13531925758615 -3.83351379895619 -3.28133158762317 5.48101904656377 1.57301881455418 -1.2218112645836 1.66035299444659 1.57823331479369 -8.42659484390859 -1.42402044218744 -11.1168966207162 5.25276893695671 -5.02866821045616 1.56183076968013 -8.43824951501551 -3.69174251764058 0.969248342252738 -6.17363023671756 -7.43901980146169 -11.1024251786833 -4.6642222365823 1.70143243338138 1.05585891004968 -0.241412925038843 -2.06999365358809 -0.683328030942942 7.89059933648263 -10.8921068680684 6.56577530660021 -12.1261781032047 -4.57741777653625 -5.0286264954587 5.72654243854734 4.48548386031838 -2.63350513872325 10.7968428443434 1.32769558623967 -11.9381010053549
Architectural_engineering	-3.32180132964333 -3.85776894207519 5.0059700977764 -7.42769370473679 5.06866615897806 -0.0844493965440863 4.04028382934751 -0.298859407212478 0.25630981668342 7.39795252080956 -8.38568536955793 1.04267663292172 2.74192586665538 -11.618699931799 -0.955603452620167 0.55516020314191 -4.62131310800535 -1.76169790863943 -3.45968173200349 -7.89126210656206 -1.3340588217275 -4.53645471699031 0.339430021239176 -1.49511266148782 4.25612679912769 10.0222241512163 -4.43022758219505 -7.11999025064196 1.23574000834132 1.39771043047497 -2.71231999280504 -6.60077431967546 2.04034861949761 -2.8014853932972 2.05842190917029 0.258662604771743 -1.00347469305445 -7.29939644223874 0.139364718603385 12.7931518083926 -2.45558177393388 -1.11703107523386 2.19396751724818 2.96020927082684 -3.99536009036805 2.03185275706764 -6.40339793777622 4.00924549637466 -1.10981489515367 -2.44856147336602 2.0717618473588 5.68808563609427 -4.76847821110891 4.92538653033824 -0.804406126808888 -0.685913867521105 0.149797787278192 1.57202295162223 0.914601256197632 -6.33997766372434 0.0970161272420823 11.0691466016892 -6.60752877416615 -2.79850608968066 -2.18863881719494 1.91460504536065 0.605135752376616 -1.18475162050784 1.74777416372297 1.75394915741171 -4.46070197424514 -0.149006724377847 -7.72852165881402 3.59615501508156 -1.71677777595128 2.34807885355144 -3.96116229969967 -3.87923614457278 0.547034048281438 -3.30405931627704 -4.97006818767353 -8.29317124866937 -3.14638451911523 -0.529207080690211 1.19089017482875 1.17313287787737 -1.69016770829077 -1.70674919146982 4.71064309892006 -9.24595041922786 4.61303971792186 -7.4670122629168 -3.17071309509502 -1.41984835856063 4.09063322873643 3.61390832889815 -1.41032603833607 8.77731967128993 2.06763079726287 -7.87304082533739
Arithmetic	-5.07783454511331 -6.13920358097154 4.86173349066252 -10.4936895819434 8.48673580446137 1.07668625526757 7.11782174506428 3.26744024824528 0.3215506618549 9.32827060434959 -13.839668873174 -0.204291389924352 2.32824159798496 -17.561980113972 -2.75094280931188 2.07423151890633 -9.78940942092383 -3.74295243404059 -4.45856748209396 -10.6261261067796 1.3662178966255 -7.9085306971836 -1.04386288174538 -2.98455722218504 3.97568414028901 15.0438063015649 -6.98257350011214 -10.1599812467794 2.65786423402411 1.46587323701665 -5.33923418992177 -9.45002363869951 2.74213403234519 -3.90910846740283 3.07472236755576 -0.817797894534542 -2.81441177923121 -12.8174253122083 1.13363330349422 18.7565488860208 -4.60097182679702 -2.74070086927548 4.78679856969113 2.04199835017 -6.24129920447003 1.88573107912136 -4.31857532465568 6.951089515261 -1.80847178991133 -4.55286551154364 -0.489012254703894 8.20777307069171 -9.50569578956067 6.89243580059588 -0.839158809392503 -1.42793118257229 -2.2896949280741 1.66090634231764 4.11721804050418 -4.00838392693706 -1.8048824497135 13.7095650964661 -6.76097277348332 -3.22588797281437 -0.860941363531301 3.4984947984833 2.35577365445216 -0.878385563595741 1.52214596140537 0.64674477372515 -6.01196054969374 -2.70432952150957 -12.1672852111932 4.00399611161785 -3.87468295355515 1.03927990710007 -9.17201958299901 -3.21103578929557 -0.380230075048093 -5.59350260861827 -5.94835562534085 -7.80428215553733 -2.90798645545779 -0.44122154519134 2.62345243697587 0.899886701698291 -3.48679366131597 0.506072767374718 7.61926643518512 -11.9530244423349 4.71313367814827 -12.3894399754456 -4.00708007755974 -3.97445610812803 5.54852002473211 5.45239877960713 -1.30542363879335 12.6454140026869 1.84656259120446 -10.7660323690325
Art	-3.53664405804211 -6.54220088141516 4.216288681564 -9.12676039782648 9.88496182470246 1.136399149051 8.78370627733346 1.98262531489145 1.24142231830602 12.3871555207807 -16.2274261067844 0.456722304002579 2.51822649158384 -19.195466367547 0.5777205659396 2.66804429489027 -8.66540557309217 -5.14774447750239 -5.69318960433945 -13.5724011837638 -0.496989018638741 -9.84157294357353 2.31863610969488 -4.75190821530655 5.40005035541626 19.9136807331457 -7.65105132566775 -9.15177876146105 2.16712604049307 2.57156358440171 -6.51741343747416 -9.89700889421592 0.560830314916566 -4.38143515614344 5.07828900333349 2.08531205123611 -3.46047349400854 -14.7227671071801 -1.03373968799209 22.7501916295449 -4.57548077254665 -2.954665550634 2.64648931925242 3.22785252080015 -4.64152363479895 4.7997510477708 -7.98310719137179 9.10374180697325 -1.37713564428235 -4.70655319415549 2.57985176554559 9.49034314952525 -10.2602987534167 9.13200613935025 -2.93124963288729 -0.843265001833512 -3.46724781109354 3.82832807605175 1.69637375690511 -7.39600546482701 -2.15486417917211 17.2149954962531 -9.36161457318152 -3.66057602609399 -2.77364617550575 6.23553893844011 3.06839336799308 -0.978797479384732 1.34525025725143 1.59555098982924 -8.02233390043378 -1.94108410350351 -13.2933797772788 6.21384285245827 -6.00874140891984 1.12999663133364 -8.98612076652097 -3.01151424787503 0.945760463927569 -6.10751264712845 -7.07653766469473 -11.0921999252144 -4.1930515565082 1.26674576430965 1.63675915757586 -0.0869361249049846 -2.27613912619659 1.46881796432029 7.4805518927306 -11.1066004992944 6.18509542878694 -12.9839086789274 -3.84020915011426 -4.95982142909331 7.17400304475767 5.17873471220554 -1.58349736785643 12.9731487846507 2.78524704463343 -12.4438533454544
Art_history	-3.58964728859513 -7.44573519747227 4.1513152355403 -9.30675093001288 10.8649867896754 2.10062896713206 9.5707663111113 1.86396892948186 -0.125976451962994 13.0737669942617 -16.5357282735122 0.567091196841934 2.42861540436383 -21.0937160232905 -0.371127430122716 2.5859411410076 -9.22599660273328 -5.64606756814374 -5.74305107600167 -14.8523090215872 -0.138299761657389 -10.6091343449625 2.73954663314029 -5.53615015624683 5.48654644402281 20.3210686978228 -8.12709393663828 -9.300161839334 1.72880208298724 2.55211580791398 -5.78123393838512 -9.91616529009677 0.878553770451887 -5.61894842620375 5.85750984537139 2.23917242643269 -3.06884946935973 -13.966242109835 -0.801040442465863 23.3805126277435 -5.37069635927979 -4.16471976330563 3.26896290873735 2.8004092940216 -4.74392189725819 4.36631450034171 -8.56703171979793 9.2494663913386 -1.65802317477074 -4.75482323606896 2.77617716737058 8.860977466047 -10.6410739336107 9.62799526033763 -3.32760745879609 -0.121930981432074 -2.9726883891231 3.84161626264464 1.68558438756579 -6.95690510877041 -3.15840035017084 18.0764753460629 -9.24994289305429 -3.55453572433898 -3.06568212078795 6.42697999331284 3.36531842601268 -0.6991770861666 1.26199370683137 2.76344643659677 -8.67232392216117 -1.72419758883202 -13.937635948328 6.3925505902037 -6.45079017225744 1.57082687249541 -9.82814818530198 -3.12799114730892 0.117489958170836 -7.97996581494263 -7.76427415967125 -11.1796479694325 -4.2329409319775 0.831871899711325 2.34880202985982 -0.887262038240741 -2.39594449363982 1.46862461996999 6.80532275794472 -12.0896817832765 5.86008131773784 -13.0319018038159 -3.22613767822951 -5.70260072309665 7.49748509973141 4.86233492848591 -1.72414975132848 13.4361956270357 2.26124757821665 -12.7075298061676
Artificial_intelligence	-2.89677698192143 -5.65790749636194 3.09514945985023 -9.19388079133322 7.37760792863873 0.216984929994823 6.27341422340522 3.35730695334949 -0.855184643879322 8.10683361588434 -12.7465084146092 0.429406169889164 1.6645632672663 -16.0586104548175 -0.942710855522331 1.15056940050778 -6.49857803907994 -3.0541927619923 -3.40124606876098 -10.1310131918354 0.638925446721383 -6.92120240652618 0.0262996187814127 -2.51953273499501 3.58732436882258 13.7277789021477 -5.91216278366753 -8.38298614761183 2.06115578753688 3.78240228500052 -4.32151261493857 -8.19501431306154 2.30526053330846 -3.97400486434566 3.27472270239863 0.60439623520227 -1.59456922676728 -11.177568052368 0.0363245281904845 16.23550568328 -4.94428963613231 -3.084751417918 2.61091996886815 2.0545848403953 -4.72042312198381 3.05099727854034 -5.94326020195551 7.32885714318547 -1.84148530626817 -2.74219662633397 2.10713310945467 7.34017994905804 -8.20265130239007 5.42655015467564 -2.64079111759503 -0.69389944865491 -2.06390840122795 2.05529143534331 1.06064332440429 -6.26688422683918 -1.63360117828573 13.8007733781633 -7.34555601918671 -1.93602227693221 -2.43371227221594 4.12074489727576 2.28763368990582 0.0612913349973554 1.20518284981057 1.33617019102721 -5.93500295044672 -2.18372506714048 -10.2731049530843 4.79210745968754 -3.99121260991823 2.81134094275802 -8.65716508509679 -3.60652322450171 0.283801220109399 -5.47565778656247 -5.78423879798786 -8.81789939016994 -2.22207256402782 0.354500563183197 1.3734253008506 -0.131963751785719 -1.95269597282202 -0.473663533582426 5.40559970835692 -10.0415255945422 5.95052296625486 -9.28144379052255 -3.33894948251139 -4.07509977562869 5.49626407413922 3.43984396072886 -0.637098313162117 9.75949451684033 2.79587599346805 -10.105998894213
Astrobiology	-2.86117721112898 -4.30661086590701 7.21183767915887 -12.1219348967187 7.81947159587343 0.650849931764333 9.24444157469523 0.840556397859082 3.48921912270209 12.3007566575981 -13.3653630386992 0.592286888735167 1.90851108896629 -18.5757157078721 4.00783617439102 2.3734095112623 -11.0687469911749 -5.73937238938788 -6.99222123999762 -11.0391684053829 -1.3445457868828 -8.23887374026364 2.40988752824177 -3.4608071137042 1.19507954266598 14.0479975237776 -5.17360970105702 -9.17311704395068 4.74359248073741 2.80608191114372 -2.83181554269646 -9.41308679381909 1.4110489720035 -5.2905913688426 7.6426880416103 4.27072857694084 -4.02862641029291 -13.0854346762116 0.237093886243846 16.5550237346521 -3.84913352818556 -5.03067733865448 1.77025819604095 3.69319996696713 -5.47527529196615 3.29711072599638 -6.60675470261764 12.2282718002556 -0.825264723232865 -2.24096727412435 2.69290796819402 9.34742547798652 -10.0904141319407 6.39481209992484 -3.72031786950678 -0.568409927530337 -0.699911516116962 3.1977681307055 2.99352719075531 -9.39964910484902 -0.784926496636046 18.2791927820413 -8.76368299615463 -3.09922418907976 -5.14931155517636 4.1305846571816 2.0817264723661 -3.275023639391 1.96849429109549 -0.96997616090048 -7.38990060048486 0.186702228345779 -10.541734232751 6.90891873157034 -6.1324760455235 2.5813242272849 -8.22436127519216 -5.48735330378463 0.296055696532888 -6.12897190218838 -6.90748730073986 -10.7896470474017 -3.24336675606231 0.231757016186105 3.12645976595929 -3.77973971303724 -1.22469039976136 1.30302522545692 9.1342627225626 -13.7597531114249 5.71677683415098 -13.4048212269966 -3.06408170973054 -4.39080167571324 4.14629598583399 2.50535719072712 -2.33045872564783 11.9688315859243 2.53177848845869 -9.92935945040918
Astronomy	-2.12156415923164 -4.36611040924765 7.08579624161441 -12.327940412623 8.82106956107989 2.27561524289586 11.0012960588597 2.15344750875794 2.97140198975461 13.4879703856487 -11.3523266973047 0.0248007704888323 1.21335699941186 -19.9409338931788 2.77345175011712 1.03560680749011 -10.5398703853334 -3.93058684985685 -6.17395291438377 -11.2276977846234 0.774647018093833 -10.2576771652358 2.32322985270742 -1.67609110448168 2.14884239136387 11.4910039709198 -5.80113325283407 -8.87416063461377 4.56565792379912 1.99775123308683 -2.8046219187671 -9.98939028710184 3.07402354728903 -3.70321756390127 8.54575176852533 1.85069895387467 -4.01839590818582 -13.9848384932589 -0.573397698137782 17.111270732307 -4.13318268258007 -4.29420364223167 2.75560118620774 3.27091591553023 -6.94650044237744 0.755439261660849 -7.80399281266969 9.44199330587406 -0.34094915686907 -2.43049613693959 1.29828453004391 9.84516262722784 -11.0361411523863 5.55135604124401 -1.43978585755677 -0.952383537588203 -2.0013170659634 2.65032461515685 3.09755047269934 -8.23137429808352 -2.36755051662924 16.0296769984316 -6.85958473779421 -4.15533125360919 -4.44536015347196 4.79137121165041 2.72648372413342 -3.79113859166378 3.63513294876228 -0.269297688956997 -7.59287566471842 1.1308965015062 -9.02001987189369 5.98581902217536 -7.13521831882607 0.673802443273814 -8.44252455522309 -5.85693065557328 1.1012704512875 -6.66900471219144 -7.67280391893783 -9.54718123167817 -3.08484185298951 -0.0472083701197917 1.90007169170091 -2.88664629923914 -1.52009632552953 -0.361188225843652 8.05939524766551 -13.6727112687523 5.76229459573776 -11.7517156161825 -3.20218863915273 -5.03946503119663 3.71768156535552 2.71944013980349 -2.00397518917463 12.5263307581487 3.54254016573227 -10.0554408272011
Astrophysics	-2.22860855573478 -4.28657465373157 4.88670114872324 -10.6741873129085 9.07802984510678 2.04338343230484 8.73454311488107 2.30604756054261 0.957772486180681 12.0521503873336 -10.8655725324711 0.223909662794614 1.59374218728365 -18.2431045316745 1.88268484166779 1.93922109573144 -9.83348640348415 -2.53075369395423 -5.04125664662367 -11.2784344361384 1.21563813141397 -9.16450437218152 1.75858344192153 -1.84850381717129 3.40641050959753 12.5118380176001 -5.80176390274578 -8.37932898333041 2.91520434339854 2.09365657274365 -3.87845669901318 -9.42392521012162 2.83994376236256 -4.83156120604263 7.45721615201337 0.901864898534165 -3.37227197977009 -12.2235499875749 -0.387451196434931 17.5851063837026 -5.35184859256686 -4.20092662347222 2.73976289953223 3.3842010236471 -6.16045329643874 1.62658119959411 -7.08002429475115 8.49751096539024 -0.121675425150809 -1.9603402186576 1.11706391183493 9.09386419721885 -10.0401375828078 6.40292376288552 -2.1962024131499 -0.86406157557249 -1.90350820581723 3.2527229245846 2.67174391117749 -6.75821388324633 -3.0936122381663 14.3975250012881 -6.73559324398363 -2.30855209911089 -4.47013106260649 3.86515629887584 3.03338114993535 -2.34743694610219 2.51110895063817 0.511230465345849 -6.76116549171601 -0.417142004146171 -9.97225082901879 5.11126669954783 -5.63763359988342 0.734847615692928 -8.00524634839683 -5.47489934569495 1.45114584858354 -6.70694801099203 -6.76242293779399 -10.3542211692432 -3.18085678316471 -0.0591563391385812 2.32732522254007 -1.6980343996816 -1.39284761250041 0.504830247982146 7.41724735238336 -11.150089972713 6.1323487059678 -10.3232324018694 -3.36291066872215 -4.93739611232397 4.50867176534721 3.67516487570786 -1.71074601298523 12.5268565540868 2.58281628548431 -8.84311471311418
Atmospheric_sciences	-2.61824628234941 -3.64250957950629 6.92956143809199 -10.3040439235564 6.38669928965275 -0.428312896352948 7.74693388479356 2.5041104302118 2.40699744462374 9.25015295972261 -10.9817405192239 2.62463090689543 3.58630947998654 -15.6533550854187 2.40793829522709 2.7947966537445 -8.20102083341246 -2.37392142239562 -5.63995407897049 -9.06871979193167 0.542460767253328 -5.70985115731648 0.0904561772490238 -2.26926325457881 3.09857851428197 11.0540935652799 -3.82043543541592 -7.72647230544264 2.54047385751065 3.42421168343143 -2.8463203101626 -8.66162023002142 1.67586141677885 -4.53015205524421 5.16440200533925 2.16022762823257 -3.57477648582323 -10.4738287270966 -0.189546219170877 14.8787650828437 -2.85367312073101 -3.67212174098306 0.209975484918297 2.65648357518293 -5.93086843130974 2.28539452178183 -7.79012812710502 8.89537978724915 -0.105777848087237 -1.26763574098183 -0.462903217554706 7.79890897304731 -10.0926598959286 5.2635782131648 -3.84418626069739 -0.987283370013912 -1.81473378572848 2.4089376475357 2.0907455360705 -7.55078760126446 -1.99772090059936 13.1795179460546 -8.33260722318688 -2.52034433994207 -3.81904110342645 4.02199186682422 0.360936224686077 -3.40886905697222 1.7781924656441 1.86107799702381 -5.30299643623643 0.408325796978409 -7.56134231525222 5.75557550105469 -3.33513514668881 3.48462343000596 -4.8008934531141 -6.00652569207615 2.13998005487485 -4.67036446936549 -6.60042392587669 -7.70458210382571 -3.45353999755796 -0.980211233025544 2.71174345680239 -1.96701427392227 -2.3087673172342 0.643056303812171 8.10138985900555 -10.9610156853276 5.17715231484255 -9.88740595052585 -3.46987179879552 -1.75985013414941 4.62977944471778 1.51701510601019 -0.850516062259058 9.79265701610998 1.5867988330167 -9.04121137685912
Atomic_physics	-2.80664490008884 -3.8077871694306 2.67355733180921 -7.97386467807112 6.19809839812837 -0.69486325947719 5.45958854534845 2.3799134300528 0.761660006349575 6.57510844339284 -7.05964455713017 -0.0605234108264046 0.933683178215258 -11.8046054680918 -0.352753230947952 0.987107446408298 -6.00242187121653 -0.754600107353108 -4.93389104008947 -8.79504703104227 0.149323832508611 -6.70398326770548 1.12819577995827 -1.26693742854974 1.94247929066405 8.03278681879861 -4.88230916834911 -5.56743495316681 2.81322544203266 1.72516403921359 -2.8577761119507 -5.81238680717449 3.0317167749595 -3.52545722687689 5.0912996158325 1.26272124148605 -1.65282283283078 -8.00980185928675 -0.778278900296804 11.3998644236844 -3.29311005842901 -3.45794957961685 2.07422985306506 2.07630902159484 -3.91275565835552 1.67503496511136 -4.99746499386404 6.18518737060715 1.94869723883675 -2.15537336365124 -0.780681429029199 7.89619522383588 -6.88764646803286 5.10610553267779 -2.42205595826608 -0.150636273587685 -0.342254533828485 3.69345251793081 2.20831208786846 -5.74483108997816 -2.10575454383865 10.3792567816615 -5.90804048078477 -1.56717676840008 -2.69179456126374 3.9019469736047 1.89369986621793 -1.33543474415248 2.37272033822709 1.28630170153849 -5.07347901404453 -1.57701290107761 -7.04104194746318 4.18824172936602 -4.44832589915137 0.722108434391093 -5.52824009027084 -3.06714517497704 -0.116665455620257 -5.00096000398546 -4.09825073520797 -7.10309164464006 -2.2361672480741 -1.0508377644214 1.44023563588977 -1.2719664643268 -1.26193141307543 0.44679774181257 4.87072793450514 -8.81542174260313 3.71719873547257 -9.20347933727014 -3.39733942523949 -2.31376492946091 4.32874241806905 3.33856180009226 -1.94684827664874 9.24372119311675 0.90980779346246 -8.09606604554028
Audiology	-3.36647878504339 -5.06542382066087 4.24637402289058 -8.25099612199784 6.23653362938988 -0.519605950242049 4.80575741170658 3.90558519774819 0.94233835913168 7.28378801311295 -11.268360490544 0.517606270410757 0.0580457042601392 -15.3832436224692 -2.56880654437211 2.48647321669016 -8.88843882669266 -5.49751932344442 -2.96211140439371 -9.9709044295943 0.657934168228238 -8.00375449148742 0.35531053123299 -2.15905001486195 2.51460936018689 17.1911103962509 -5.51680499996204 -8.79853504775596 2.04377726950602 3.10410777976218 -1.60513162847541 -8.49627790324122 1.98235352264632 -3.13119122564082 4.72840731546669 -0.117348690414991 -0.696914627066354 -13.0624398048868 -1.14374804014948 14.7268442907323 -4.41729976307407 -3.81184421548263 3.03735943440713 2.29842614063125 -4.19138794669817 6.27257596981796 -7.08273184983502 6.66666999917932 -0.319466967105243 -3.26179062014202 1.62907110413621 9.310491848149 -8.58527734869777 6.31274989763711 -1.38195580181566 -0.893496530104598 -1.23605689802907 2.76273997523242 4.21442786899994 -7.05884022484496 -1.05559052224119 12.7798631236271 -7.58965286163767 -3.7967837079632 -3.86980761450296 2.74693664080556 1.38998940059952 -0.370341907124627 1.00076974607334 2.61490208624631 -5.20161262538281 -2.36078595240998 -8.75730083647914 3.79273938593029 -4.34098313032547 -0.382271080998944 -6.77352245237959 -0.883734060180147 1.18796623632005 -3.49757981607661 -5.54031832749329 -10.8686961556798 -4.83470431705234 -1.26582067314567 -1.53278392490216 -1.38411367240266 -2.53750052956393 -1.50271561983978 6.47439658707114 -11.1611292167142 5.02279207860864 -12.0605305663222 -4.13437990810867 -0.184069175846539 7.23545356212751 4.7490801629648 -1.56757316785603 11.4844774830386 1.42105693293939 -9.37832009527783
Automotive_engineering	-3.46747841684485 -1.92416825023889 5.22801502720001 -7.44162128822257 4.5060025812278 1.22657625139348 5.26603221368357 0.401608815829179 -0.190043718291887 7.40947951607382 -11.4459219645779 1.65093518838243 1.87113281942521 -12.9183218376636 -0.175711610899339 -0.22192460373204 -4.76846606883143 -0.639456622319163 -4.29951346855693 -9.58833029887991 -1.32127065378839 -6.33879772348403 -1.1002533207911 -3.84913093397014 4.55766653008031 11.6274150480034 -5.58578642767285 -9.13044812474159 3.77087603880391 3.63878078706548 -2.58357843388813 -7.57055513260466 3.52192274709925 -3.77784628902215 3.4402899204655 0.395899204176823 -1.67371940295432 -10.4803852948648 0.597742445671599 13.5011800105448 -4.18373962913961 -3.43669730572921 1.23423711233156 1.85784983271569 -4.48772933012655 3.51794082348421 -7.03492292271285 7.56551405083517 -0.220297388714058 -1.80420153905465 2.51290153412328 8.06255217280897 -5.66815034871577 4.70884296999503 -0.650906269009811 -0.0489010218267485 -0.731127067579443 2.74416562455246 1.17936119412023 -7.67660004468391 0.577524450090076 13.4047923817568 -7.4679369947508 -2.78509012003388 -2.51269591332921 2.95991472962715 1.16844774770507 -1.6666438473857 1.02059424479243 0.32771838156019 -3.84426464201639 -2.13301383252145 -8.41365275073404 3.21306080305423 -4.28603354228071 1.97111520803089 -7.08133978780608 -4.48978340226103 -0.0600961741743763 -1.83147731641906 -5.21699092483578 -8.87151266498877 -4.46828922703715 -2.63196236336861 0.905524607288841 1.57321783661152 -1.95427044080007 -2.46313197447767 5.46239168346762 -9.81908321312751 4.75684983258506 -9.88877119439808 -3.38762488237941 -0.693439857861906 3.07428523937052 6.06624651716588 -3.57696005726871 9.66856869531427 1.96717164862816 -8.51376089336521
Biochemical_engineering	-2.13609329607328 -2.81840151422981 4.00128656292948 -7.64218044191645 5.04791531459829 0.45797974114097 5.32151644665292 2.59024867724865 -2.24392477370403 5.79325371870655 -8.00373636391433 -0.228256464148046 0.229711285700793 -8.83507767337844 1.35067557983095 -1.66500843305327 -6.22115573027439 -2.63145835166496 -4.25601909002554 -9.56026791678937 -0.933400717060416 -3.7567042451837 -0.948561474141536 -3.05956056830405 5.86846970230636 10.3440174385165 -3.81558730861762 -5.96865521596616 1.26345822420855 1.34148033104334 -4.07720955203503 -7.55528786795919 1.86291362798489 -3.91897572253364 2.18296642503315 0.327694364850505 -0.820452689537058 -6.31789594193044 -0.207574744437721 9.87547426018755 -2.48420750048258 -3.26323511338484 1.61412418833973 4.10151214303955 -2.80415738595353 3.47372749905473 -6.5658784371054 7.45840533015317 -0.0755143789797404 -2.32267758746767 2.72478974549635 5.33090939392602 -5.53721826123573 3.69635788938762 -0.739243079861451 -0.624170504045766 -0.95398392159288 2.51251814404588 1.45103007392259 -4.50905412686316 0.298990820877934 11.4997046946028 -4.14123991826866 -2.30547138384715 -1.55377954676737 2.48394522949678 1.52723541481658 -1.27770324074365 -0.00153733519787283 2.10867435127537 -3.04661997386828 -0.813960059269995 -6.9473729806717 3.87264134180246 -2.19322277963751 1.77897586659778 -6.51296951391467 -3.32719577451728 -0.672127276843697 -4.64370081231741 -4.47064033991054 -7.86597268406529 -2.16447659206858 -0.972444597527301 3.26406418036095 0.525992995142507 -0.0369749389602483 -1.46301998940879 4.07441390196969 -9.44802109431948 4.34998379037383 -7.9293209496357 -3.47061278972445 -1.74578628567966 4.28439457621473 3.96806057366048 -3.13484588099859 9.52964155458986 1.29564134268556 -7.55422393973317
Biochemistry	-3.04939948691336 -5.31096299552492 4.27968289962092 -8.6164537271256 7.28864113992491 -0.825912727849103 7.51215669500258 2.05475535369093 -0.144726753989149 6.04084618238531 -9.617877169579 -0.353548317417195 -0.0373094224211645 -11.923642582484 1.72760882128504 0.82521065068172 -9.15670700396897 -3.65592091221915 -8.01683874546945 -11.0778894726202 1.68475696177462 -5.20115515180091 -0.0203420725566848 -4.7342934903925 2.04622137410139 13.3847660120602 -5.68422755106277 -6.12747864233635 1.47171366825785 1.84201085048285 -2.62438514929933 -8.4038332554168 2.62532403954411 -3.07249172592911 5.61860086986139 2.11200851973643 -2.42832458829255 -11.5646690975072 2.03847895910997 14.4794905475362 -4.91451880352857 -4.30585076712213 3.01753331854546 3.82379292115688 -5.37679807487545 3.86185387998762 -6.59087530887969 7.81197306371583 0.453079155931689 -3.04495866562643 3.16771790613991 9.42042847055875 -8.47025783679042 7.20098213311195 -2.4417878475131 0.116711684969516 -1.38753776546129 2.52004365210587 2.69795776432678 -4.97404311752002 -1.20125715707601 14.7450727345693 -5.51750956251834 -0.963687515321967 -1.10946270375628 2.39241501166004 1.29545386866478 -0.152015671418473 1.50101997647592 2.68642982422385 -6.26798391295923 -2.10897640796803 -10.0089167292079 4.26204361714657 -4.49391330689136 2.35551745695376 -6.90116283382811 -4.00776864478287 0.123009203832315 -6.06374540591916 -5.65280626750356 -9.63650508971129 -2.90063002941386 0.164845596700437 2.19928807586627 0.147731069958574 -2.31326106206006 0.180003037715691 7.03836743045886 -11.3464896392884 4.63236677154598 -12.0880458895218 -4.14856302039961 -3.73893985604854 6.27553686623444 4.0746922630495 -0.937446804033048 10.2038807172037 0.952550792774665 -10.5154782343119
Bioinformatics	-1.97070918926126 -3.6003893873426 2.99099920211333 -7.79644126040069 6.17919104047454 -1.40756392475301 6.08150612966131 3.08673331380695 -1.10945627823719 6.36940890874634 -8.00257628210784 0.321643307735763 0.43214964855364 -11.4608395133294 -0.262890833212523 0.234752431991262 -5.37985180193694 -2.62116391872828 -4.02645993954256 -7.93609506309563 1.44625448324429 -4.85348061204573 -0.075529435627299 -2.25082400862585 2.81250841309467 11.6404459512334 -4.27276373880988 -6.77130267274234 2.50095697957993 2.23418040247953 -2.98724826958727 -7.96643045309769 2.33009912442998 -3.08517544341669 3.21321270995703 1.00560637175429 -0.221584011588119 -7.46104955884728 1.80391939504878 9.90603255814738 -3.74014536129525 -2.94134303043155 0.401451888078229 3.55751609175984 -2.80498736985281 1.03477960176685 -4.69659877267316 5.03835967077775 -1.23802895679058 -2.92863985761202 1.72770504319632 6.99315980907963 -6.15574027215898 4.51003160777069 -2.04106243662218 0.647208029321692 0.273392441332332 2.13302388239573 1.35395284285875 -3.92663909957448 -1.45871027171237 10.3339290130414 -4.86252008386846 -1.92141775602741 -0.709327059906469 3.03441541905804 1.09667676541723 -0.0508114608411355 1.04849495103999 0.822771067464365 -4.37836616111859 0.110669874771905 -6.79802851061204 4.9560370007136 -3.66326917032878 1.91244608495634 -6.53174146130249 -4.00260731468641 0.781130282101177 -4.50642934443946 -4.31750238017364 -6.59838461936027 -1.67692837381769 0.0901880100055546 1.04706399198208 -0.38845088513709 0.113923719359051 -0.953560969454818 4.56090182189669 -8.53055850589937 3.59229504357766 -8.18624078545256 -2.76275757688057 -3.52365482251909 4.60070073060627 3.71044698454769 -0.115087742719628 7.51715790141841 1.41413226466849 -7.75363111545667
Biological_system	-1.53291942834628 -2.50323726210974 3.39007828441659 -5.79270817328522 5.50729046850333 -1.89539468323105 4.02181388393541 1.08634017881881 0.236170597017116 5.61711907893995 -6.53100328753606 -0.693819089036061 -1.50391369480226 -10.0539287552667 0.491424066198984 -0.275244904688584 -3.93527578822868 -2.00063751292887 -2.23009334146526 -5.56448906939094 -0.336721052285048 -3.21704834972587 -0.586067855034247 -3.57440276240691 1.38211487087353 9.31299277516382 -3.50181051418177 -3.76172261746176 0.267972683420826 -0.376830562363227 -1.89772018818344 -6.99617158859834 1.46026950718331 -2.17071835770409 2.57010903754489 1.70759889823825 -0.353641064023345 -5.7419607471384 -0.0909609326308333 8.25612356789106 -1.98262963690906 -2.2315113820399 1.7316939698752 2.52309425491963 -1.82522526334108 1.36075644470786 -4.59748116021376 5.01010718403722 -0.0327244878827192 -1.56629920935899 2.6182452678174 4.61633701864247 -5.95138508876639 2.4832356686078 -3.45870363161489 0.982209488629839 0.27950128428823 2.13487354553006 1.86280766472695 -3.92535880989994 -1.24418456579341 9.74803583539476 -4.3523115087717 -1.84710720064493 -1.43576141554832 1.48374034885104 0.518523729947859 -0.888562979928053 3.16951096642802 0.655787980110603 -3.31004399081284 -0.454784750309779 -5.99900288138348 2.25284349139719 -2.36958342681326 2.13890079856458 -4.72041945043089 -1.93986149775474 0.438971818827733 -3.41380831826598 -3.88133623172895 -6.30158958508387 -1.05435665994071 -0.327033230774504 -0.0127864266805296 -0.281503042330464 -1.68867695757564 -0.0892566463426621 3.01696731901748 -9.22634772813879 4.14719626533716 -7.02397521727594 -1.95530307949386 -1.80019286160999 4.37178908732014 3.8167034397167 -1.84124427810626 7.91783692543529 0.777811976158635 -5.90629477497812
Biology	-3.06603290944598 -4.64374678982884 3.71778295640401 -8.3797143756678 8.3280859214909 -0.741375885868491 6.46381904996601 2.42839406683119 -0.0304434729447744 9.88981729403318 -11.1067043451597 0.336925771491154 0.0417611460640732 -15.229383814058 0.0909368768620461 0.745445038623191 -8.84352366260402 -3.30324170856908 -5.17522168655933 -10.5659326751879 1.57053495178133 -6.02173394912068 -0.236011406572195 -4.55786434820339 3.29546257464642 14.6602730333413 -4.91829386242746 -6.23967441133132 0.763920252155996 1.20113079604373 -2.74099914460172 -9.04563817723921 2.33989044497491 -3.51529164424668 5.04855374027365 2.94506276965626 -1.67360374968679 -9.66380462518752 0.618981469848402 13.7598797297767 -3.46371340139602 -3.17639565929744 1.3356226633551 5.19050185399442 -3.75186134388932 2.17882400053452 -5.97558115336628 7.56415946932999 -1.92782127765401 -4.38975618139252 3.19665980338305 7.64743524037478 -8.81782518707046 5.91959932717183 -4.04873392754607 0.168751389638443 -1.03755865272313 3.12330064283514 2.63602188523561 -5.88085850216575 -1.31741949319824 13.0885107000921 -6.19431887125347 -2.34913234410057 -2.19646586177328 2.41758507939474 1.85884725261861 -1.36345438019791 1.50946670052999 0.836196119490562 -5.88537441558426 -0.580047237889471 -9.5077228794519 5.18453021318643 -4.65745001279392 2.00961674981172 -7.10062901240355 -3.94861656795361 0.828931281699687 -6.45270995987699 -5.35243218474757 -9.65422774032015 -2.24582574232366 -0.521892436873969 2.25060366916216 0.270694670890627 -2.29753117455599 0.631856876539747 5.97123652574551 -11.7705797405516 5.61473895601365 -11.2011634750718 -3.8435179186578 -4.6308425174064 6.18036176888977 4.1225762086751 -1.62647933972966 10.137681375044 1.20034926320573 -9.68593715380021
Biomedical_engineering	-3.16367920077892 -4.39899867424757 3.63790002994992 -7.30147346575624 6.0920623482817 -1.69962912278754 5.00657511863759 3.63273078365811 -1.4208949791079 7.20935120063839 -8.36234956320872 -0.419016765051982 1.64647311486582 -12.1055556910332 -0.578076582539106 0.128499905731402 -5.91044812010722 -3.64586034458451 -4.35186014653881 -9.60930533999064 -0.776049635153831 -5.92528077382736 1.30805848063426 -3.17534514707996 4.25778062560636 12.8559934499163 -5.93421085659123 -8.39424626606612 1.97727634632697 1.09838401724887 -3.70345774262302 -7.11735845896283 1.49383824876325 -1.9761305199404 3.00737299688035 0.0348642841855149 -0.502492490847294 -10.1835510279826 0.239239240232854 13.3952682684995 -3.70267398489664 -3.02516134651663 1.96715509948788 3.16294594701231 -3.47279790630227 3.37714158925864 -6.48170174083931 6.0253487939291 -0.133613843506076 -2.86483113861336 1.68493144982592 6.77002909686491 -7.34397760049184 4.04124798828385 -2.51007427196751 0.652861300690279 -0.49658065785355 2.79027990259133 3.16408045066971 -6.54157539361943 -0.770191155755934 11.7767306606419 -6.16110171536637 -3.15340576423483 -2.84065243595002 1.8672878734073 1.21526341778936 -0.590360562958718 0.771920367195743 1.78219340423143 -4.32233038620742 -1.63176348019771 -7.24145890665693 4.26650222049743 -3.14368674637243 1.77081078980914 -7.03428340425204 -3.46365767587853 0.0837716067797486 -3.92815557828433 -5.1402863396068 -8.65695719710032 -2.65937333140768 -0.097894194560541 0.769569166945177 0.329738675170984 -1.08791062161803 -0.799360254480331 5.17424083804591 -10.0623785486374 6.03045936746937 -8.1468217837194 -3.19456805756848 -2.86556193226562 4.91525749065422 4.12357448289362 -2.71968130499254 9.57168232386468 1.51793021037268 -8.54502010046993
Biophysics	-3.13085133482507 -3.66755508149517 3.83865417671531 -7.33754314464365 7.8166776457115 -0.770539706009974 7.17174867775938 3.09663945272993 -1.11215244888892 8.64550137217859 -9.31008900766533 0.358072796657239 0.703596091244794 -13.707474377099 0.947922754406948 -0.576976937294992 -6.93071488345606 -2.29114941654972 -5.62966291319982 -10.3074278361275 0.704497402848367 -5.67546479952902 1.16662336468026 -3.68049797139438 3.94297910546491 13.146218773314 -5.08760576845036 -6.36919176400226 0.569483402525053 1.61207995217878 -2.73390890684821 -5.97618573663889 0.928774981353881 -4.79113600657572 5.96211095843825 0.620646274816577 -1.34344532413584 -7.69003216945122 0.580908753635182 13.2285223596421 -5.00528792666842 -4.45016549806926 0.746905794366361 3.68334520332911 -4.37257952620181 1.19921629859593 -5.65343726054038 6.67288243128861 -0.131387034143803 -2.16595694326185 2.21825159833905 8.3135333085774 -8.75033137894529 6.03129924892758 -4.04000912086554 0.685546363517628 0.62689412521525 2.96159961538235 2.05061975066983 -5.89182720628372 -2.5260676807964 11.8959204082247 -5.27143441790059 -1.72572232330778 -3.32139054957419 3.02744950791951 2.02351430957357 -0.32868352470471 1.41489461546222 2.71395183473106 -4.98813569960374 -1.69577649715136 -10.180511892146 4.59021575797699 -3.13069594993744 1.07721849917007 -7.58665336084267 -3.21706911172072 0.615268932335507 -6.39335703063195 -5.794732251093 -8.02724666311229 -2.77167119888122 0.1349938541674 2.27470010740638 -0.671046824385352 -1.50775655999479 0.37368494566339 3.69428740730314 -8.82213147883837 5.37206152343214 -8.82262093306825 -3.24915216379398 -3.48093535977755 6.17374340352296 4.10283290745399 -1.14467547254804 10.9972044588874 0.565605053686185 -9.03114686988686
Biotechnology	-3.37752067183989 -4.24658204569053 5.01040171480997 -8.46250244844932 6.32733561762712 -1.64171719575988 6.45475625765301 2.85708156353824 -2.05693085531214 8.18647288523383 -10.8293309118229 -0.407355102506092 0.690000974826631 -11.8006626453991 0.159079356111846 1.12850367326211 -8.42048747857435 -2.99462332116058 -5.99045404524311 -11.185829200312 0.181321033962091 -5.44836437692434 -0.171536533054623 -3.30750757374443 4.56116214685469 13.9219946534364 -3.63075120922138 -6.0392546189583 1.18642207749848 2.39162084899277 -4.71089335555549 -8.46446882255022 2.66465482219328 -2.98908147709122 3.51472400943784 2.05214109780484 -0.837603798322962 -9.85667790981893 0.619012988148807 12.865460961346 -2.86847632832723 -3.12829548080515 0.820588779364087 3.96713783800071 -3.34676410809303 5.54868162773265 -6.66107304894194 6.43662263173686 0.0157542227704369 -2.75784152494282 3.20117862156514 7.45595565316441 -7.35981699500566 5.42391886187567 -2.23043931312526 -0.291417097119345 -1.81453129130037 2.99076839413006 2.42991370221281 -5.85210140508593 -0.599549181842766 12.6727631338921 -5.4694881708892 -2.80149581194051 -1.57045983546938 2.49872639433073 2.12941494077357 -0.822707768597914 0.927034187304028 1.598374343664 -5.26078893637448 -0.165490778458486 -8.53970238049792 4.90482622204299 -3.57827239167008 1.63097906142469 -7.97272714173173 -4.22148172058037 0.761614312917566 -4.53917743625401 -4.78460448231782 -9.36225753019259 -2.48778356700433 -0.434111575838299 3.13320410235875 -0.533484654111568 -1.55626645094147 -1.00053675802282 5.48579261079222 -10.6188178285029 5.88848358426043 -10.320852452254 -4.63712966730203 -3.58879869762904 4.86592414532502 4.78276739613078 -2.71580502779321 9.45878317290921 1.42312553223817 -9.53636521192394
Botany	-4.02261133430136 -6.2053396747543 5.35080843091825 -11.5809174914857 10.0588473028513 -0.760664375149315 7.98191550044144 1.18419357429808 0.638521939986569 11.5131755780171 -14.6662617288796 -0.22811743057058 1.50751432091279 -17.4472046750606 -0.0815451978017901 1.59783781537774 -13.3198653513062 -3.04632690516061 -8.827295907979 -13.1226815799232 2.46027876867499 -6.9456171571767 -3.12052229562109 -5.45596901295128 3.3788505154875 16.4867729578171 -8.01425208228142 -7.96641496703058 1.38398411828493 3.28310210329052 -5.21452016614538 -10.2331703623402 3.52781123104516 -3.83267719059817 5.90818116679585 2.90545615109632 -2.00197176390463 -12.9996361695315 1.25460756605593 18.151067039403 -3.21668419693389 -3.71858637730143 2.30388138792997 7.43168528803955 -4.81558810184025 4.30851083843645 -9.27154754229583 8.46982071081023 -2.1267087532 -5.67793715774651 4.87463066145154 10.5975589482567 -10.8150680155486 7.86662668589639 -2.75533690319166 -0.862916110929311 -2.37280019575262 4.33044283507792 3.01772989442911 -7.93276546495181 -0.517738073522289 16.7847676497232 -7.83828714658594 -3.14502719934422 -2.49677197928706 3.42429047748061 1.32610340259729 -2.54169127359054 1.98873887731283 2.36467514378644 -7.10223816083785 0.00427330473754025 -10.0494673224303 6.41630623334362 -4.99826105723921 2.4481562501378 -9.43769802280348 -4.03152085035244 1.44660930626418 -7.93317453687658 -8.2724123850828 -9.87063473556046 -4.71026768064553 -1.04112467206967 3.16549956682287 -0.168993571682578 -2.92340937272479 0.783980182203945 9.01165816365421 -14.577609767564 6.05322496229071 -15.5177234166651 -3.80715779669206 -5.0288366439481 5.91095506524449 6.18668448114181 -2.88325308714114 13.4687950517828 3.04938268577566 -13.9331821591518
Business	-3.09643183884058 -6.28635393529262 3.43554293200203 -9.14950452209761 6.12140991671472 -0.271315451149261 5.23913159492059 3.71347750071657 -2.79550590479683 9.42615770112555 -12.6124046726213 -0.0116080695209542 3.06797983722585 -16.560303734949 -0.608518591764742 1.79680651438653 -5.40753755294886 -3.32277853857947 -7.71105408734068 -10.7743153107848 -1.60942177413657 -7.15318814745833 0.660087732633037 -3.66011046630852 5.63932490227945 13.3628526991775 -4.47922270946705 -8.14409874003509 3.41872469964937 4.29156878661441 -1.10467811563239 -8.75594390852529 5.41003102611471 -4.25029009071543 3.85162632996933 1.25863216294272 -0.902807320827554 -12.2800202171922 -1.12425239989511 14.4419391281826 -1.86135033472067 -3.63577184459888 2.79689361455705 3.25773472987658 -3.08642719980099 4.48906428086042 -7.45653517602645 7.09150504565675 -0.348532182013995 -3.1339678765768 4.07350441042995 7.98587348416673 -6.6874476581514 5.03720336499063 -0.753087703205249 0.355024922769991 -3.1245824970183 0.13466573517097 -0.575144097728754 -5.43102395187676 -1.7258025419834 12.7628952598563 -6.00094572654561 -3.15376178009459 -0.492312520786545 4.65483732425339 0.846066069202783 -2.93392699424104 2.81691351545393 2.26013707117957 -6.77058414048956 -0.933074403337008 -9.97579973579642 5.61241178926226 -5.86106859840219 2.32501652292833 -6.31285025320131 -4.58006423909135 -3.17845072136763 -1.49509919231673 -6.51937420502824 -7.51553531175055 -0.951177817393711 -2.32763944946833 0.261312133387794 1.29287840119498 -1.66576843119008 -1.72010209360895 6.25920822610082 -10.8257656404956 5.47744342589481 -10.9662050537739 -5.99896826849522 -1.27056264857276 2.30684638798214 4.58689483181608 -1.6488519322712 11.6578441277699 1.52327431559143 -10.0241366703759
Business_administration	-2.41971952299216 -4.98120301689383 3.14813884064519 -7.02637449098461 4.76141113113948 -0.163374312198757 4.7835180097712 2.10243191878193 -1.28197128781079 6.71491258983564 -8.55239143444335 1.13086660265609 2.60022911330298 -13.0962602305262 0.665178669863801 0.33782929754352 -5.8295937370628 -2.17890120933287 -5.01082819540631 -9.13406384573424 -1.08629695877057 -5.64913416963637 0.30194507638837 -4.05040134835193 4.28530874622959 12.5004185404953 -2.63140688169644 -8.74180987309767 1.81353438673313 3.98348051886072 -2.40111708919462 -7.55258992486042 2.75648423300443 -3.90926456593032 1.01240483089239 1.43162681128463 -0.847698070499517 -9.80697454256188 -1.04772719392669 13.4529658342364 -2.35326287222912 -5.09134022547919 2.8476570273868 1.92089871582835 -3.53164785958458 3.24481606467907 -6.94080290338448 7.00458530344246 -0.000730093957157448 -3.55166812645881 2.56897775780755 5.09566814603549 -6.50120298497386 3.51363482202161 -1.92565799964297 0.980010340331246 -0.811450135297883 1.00952135457262 -0.311029878841692 -4.53410776325327 -1.16763773712969 11.5230857685542 -4.33984401319681 -1.78035370726072 -1.75392320839815 3.44330381417034 1.89328575523154 -2.11339497709804 1.5573588450176 1.2112572884326 -6.04039175551865 -1.04714118216597 -7.69804021647658 5.70606621535276 -5.19101687301132 3.12536488694124 -4.61355489396613 -3.28423931100221 -1.38468628371304 -1.98871923586744 -3.90683398672041 -6.66458333379676 -1.99660609989033 -0.622202125197716 -0.194610410421039 1.70807268821006 -1.18017549476788 -1.58722994071167 4.01225284585039 -8.59130656952524 4.2460347035785 -7.68046644414333 -4.89816641626715 -2.36266981018584 2.13411543770156 2.52205885201316 -1.67687040170617 9.3098877065082 0.839501095789917 -8.92088831196144
Calculus	-2.31983244376764 -5.02564752513015 3.1755192490449 -8.95797461000572 7.61941541392691 2.40428834453375 6.27594572966505 2.50011346374772 -0.207018446538107 8.33506351899474 -11.4966887109324 0.523399619013927 2.17050567935082 -16.7955352911575 0.351306924421541 0.673037557669404 -9.01482139368558 -1.16208851132058 -4.95364195276474 -10.8562006231284 1.7392837472777 -7.64662873093162 0.977434623693819 -3.28630577254292 2.98756817243522 12.9325377551509 -6.87644851573589 -9.5816044127784 1.69762043045849 1.44394402195214 -4.10072552429469 -8.65522654872886 2.55119737044306 -6.57296348828891 3.99904085258083 -0.807981208953455 -3.54505625942342 -11.502275699983 0.331032622696349 15.8190860647895 -3.97625846974435 -3.84659809191592 3.51293173238244 2.06173241300261 -4.98863888536888 2.9832766716779 -4.40349144741129 6.78750528789103 -0.349326318876171 -3.27886694986624 0.342031303718503 7.8785507956053 -8.29876358329055 5.96304452857036 -1.85115197548478 0.0343857098309943 -3.37085267484915 1.7873783960999 1.58630605320183 -4.05573324632869 -1.75521347577556 13.1939508221103 -6.23184323219198 -2.60993520583911 -2.82798827352354 3.80521905593919 2.38801684147261 -1.95829432190104 1.76338666455844 1.01554000870044 -5.37008453788164 -2.12192302006845 -10.8444624768968 4.10219749646506 -4.39406926355581 1.99052900140533 -8.17453996246996 -3.2559997851419 1.33527442597205 -4.54857743152651 -5.35828917799989 -7.81100130697681 -2.81439737941006 -0.372109937908129 1.85643487632221 -0.665045141654523 -1.97827383686575 1.3391253692896 6.36080744762033 -10.1965026076569 6.00956796119282 -10.1528069524524 -3.72794595058713 -5.00004127385092 6.72113989113962 4.3883530690052 -1.62840331157075 11.5599781310657 1.87470386850628 -9.05814855019936
Cancer_research	-3.68487356488868 -4.99569496295939 5.93656740515928 -10.258320353951 8.34876138132889 -1.20490747441861 7.36013300124038 3.77484434460602 -2.56420230506451 7.20174564298422 -9.95002269477984 1.13680731535701 -0.409238401411521 -16.5524581981314 -1.69373190313632 6.07781787505078 -7.74106053762062 -5.75287813288121 -8.26863050040762 -12.1886053491757 2.64010236085657 -10.8135524031424 3.17078868491635 -4.37375769981704 2.14576231739367 19.0833122370048 -7.85135651826704 -10.0822635011308 5.28273098586757 2.61354008400819 -4.16728442488246 -10.4478205922777 5.58024788764444 -4.61436419952069 5.81541587053308 3.01625194827868 -3.00923949519695 -13.0778358133241 2.62078514813774 15.180811401388 -6.03560851993806 -6.19762230695557 3.45615668093197 5.56636749589699 -4.78897899848209 5.96878879806922 -7.62989797888526 8.64417936530993 -2.30084981799743 -5.63234706875472 3.2518775632225 11.7170159203358 -9.39500036551444 5.72909766031008 -1.5059630547308 -0.31639903193362 -1.29196503831372 2.75373370438866 2.33952741571877 -7.53479271964889 -2.11157192821703 14.6607829642046 -6.86542711757821 -4.82870464998263 -1.27570028763393 4.87800864155612 2.09668695962358 -0.984720354480438 2.9355470913284 1.1788647321261 -6.06564765606902 1.98830741693222 -11.4564962643667 6.30786256924883 -4.48885818915186 2.48540661237262 -8.99969228913754 -5.07966382662244 3.55308723338222 -7.29068358020785 -7.04108638488229 -9.79743068021578 -2.68229817991022 -0.168349197253459 2.8757325408209 -0.89174132969383 -1.45231022230171 -0.763553537823248 7.64260301568553 -13.4731707471339 6.79870791218085 -12.1913340766918 -2.008292865994 -2.32187320507824 5.22532350393828 4.04523216242066 -2.0958271868045 11.6986979144656 2.98568715137593 -10.1674519261008
Cardiology	-4.49860032921658 -4.12215336950018 4.54038205596645 -10.4106608469522 6.69979270226851 -0.219575834148176 6.26792021126834 2.18878730690944 -5.54719237282022 8.1105132772796 -6.75545113490974 -0.00757372075540406 0.114429408732686 -15.126057269977 -1.87929074899643 2.95459746470824 -6.73403747073871 -5.92873197941964 -7.28721062790388 -10.7149930641474 -0.589357159270314 -7.35945170980429 1.04198385882394 -2.95520581656555 5.14506862519862 15.1003875845603 -7.85936148131588 -8.30859827801363 1.77769798589965 0.864583092968437 -2.6018329726536 -11.4731934554323 -0.551074547490779 -3.4828451591135 4.15403243357117 1.95860027450859 -1.67048508369853 -15.8799893399853 -0.292855759290058 15.8091479702071 -5.18586044977297 -4.69870890639322 4.09458214271498 2.81419203255537 -5.17211826849193 2.54991517086046 -8.77644949624684 4.80572254160279 -1.89430755813951 -1.28418063440059 1.52651445989426 8.13340898492244 -10.3289342993427 4.86508942587826 -4.77837668404607 2.20752710972276 -1.45242730682343 1.91105470078032 3.94379072411683 -8.03838963916446 -0.738843631639241 13.5414067020816 -8.07397925925862 -4.3770735972767 -2.36819216856949 0.499286470123982 2.57914487529018 -4.41110023060533 2.65010254126197 3.63919230304995 -4.26411846231462 -0.933941333085908 -4.95096231012607 6.0694783756089 -3.69444179138788 2.91408110842793 -7.394736583495 -3.09407597564354 1.36840529671325 -3.74983979189207 -5.82432845635987 -9.20927514206072 -3.94256764363455 0.733080039546444 -0.834684429387798 1.44939410805888 -1.0205060469922 1.4804522443004 6.18439451116802 -11.8200527661409 5.38356228590377 -10.9253025805336 -4.33034462859688 -4.48672283101569 5.10474039760257 5.93222039640577 -4.02503614667165 10.2617443152037 1.93982092740084 -11.1091174304573
Cartography	-3.13549541079527 -5.99934997963255 5.13971817816947 -10.1828163519688 9.0668103799309 0.329220525683546 7.31477706005286 2.43219948977019 1.6099863130907 11.0258672501564 -15.1664524853748 0.52772065337555 2.31147724160487 -19.03722447204 0.142051907370426 2.13924154859913 -8.27682050038551 -3.77069358248034 -6.27554255108041 -12.8687997556439 0.173764264997303 -9.06432949368912 1.09839424480815 -3.74656041920157 2.97807591086908 17.8761835232757 -7.03524105526979 -10.48330512743 2.58070605908483 3.28849114026546 -4.80764733300607 -10.0389378290856 1.23194388467138 -3.68310726675736 5.13170108792501 2.33348059858602 -3.05610627105045 -12.7177967748722 0.268514987871966 19.5153178030868 -3.22538433992116 -1.74021371218579 2.3966225316972 1.8680972828673 -4.47765566871925 3.31459384800926 -7.21945627041171 8.21173841619003 -0.428843007301524 -3.30379900275762 2.44811855768439 10.5481935814328 -9.92112033099191 7.20378682459913 -1.59771687044572 -0.596070623146967 -2.39629146266291 1.51451143121936 1.40715963471563 -6.98789489959364 -1.46729611651303 15.2106212866767 -9.68265059072754 -2.99066662132816 -3.76157823813161 5.66205398162126 2.29193496837455 -1.42176419115931 2.5718555170787 2.61464084468933 -6.6912897669803 -0.698307314289376 -12.251174653573 5.11801561092558 -5.00518507014717 1.79326774589782 -8.84961770430592 -4.37780293868902 1.41723436623147 -6.84411610975401 -6.40056896715933 -9.88257477176725 -3.65560828576003 -0.307115965942028 1.71266393574829 -0.119898662836009 -0.964361833483206 -0.262728319092048 8.44882849068288 -11.7893617728972 6.50542778244807 -11.9231337408177 -4.08610210755357 -3.97132579314648 5.47725584834653 5.48305921267389 -1.0816029542635 11.0920681780443 1.81212585786383 -10.4770217523314
Cell_biology	-1.65393156313969 -2.92424545036601 2.91561009613427 -6.4516564838973 5.94802934925303 -0.54903986544632 4.94003900495421 1.52173260917423 -0.0269104850283792 6.00758507498862 -5.69205699707928 0.116160300639834 -1.55789339885464 -8.93626027267248 0.273715682952604 -0.460031876600582 -5.109503548955 -2.84165579057624 -3.52795681732341 -7.46953082215858 0.0496679100307446 -3.48786368611814 -0.0966479635255928 -4.74615960671073 2.16115983142927 10.6353225943243 -3.84772352252556 -5.02717409658668 0.50853390809364 0.90263243648786 -1.1213153481232 -4.78002282810323 1.90795861888377 -3.47775168796896 3.92009250567771 1.69723388173878 -0.701357397338159 -6.44565261132537 0.605286290328414 9.12847579976818 -3.55384177180704 -3.16164214625566 1.06073795712706 3.28491589995928 -2.35828457770645 0.460808302120556 -4.57865463790832 5.34391980978692 -1.08950136373723 -3.48093295898844 2.46380007863678 7.11007296043269 -6.66623340056788 4.27438058630564 -3.24394448120087 0.841536477378302 -0.098750253929814 2.42849246382242 1.53317949729553 -4.68003478589989 -2.0037938470915 7.79287461738946 -3.26904636884589 -1.09253809714577 -1.52351294603234 1.32399510666537 1.60833239809857 0.592409925590778 1.4664374389256 1.09320418638444 -3.50673183673591 0.0829018623795993 -7.07069411524589 3.58273841935177 -2.10055666604882 1.32780080860444 -5.16334284818431 -2.89176614068146 0.0648315984786096 -4.46966840362769 -4.43785783003484 -5.63290639313981 -1.98710005467625 -0.285298676698915 2.35645575716202 0.588080978717101 -1.19660768962381 -0.605615289422691 3.86309359079133 -8.11624214285517 3.70593856974446 -8.32221655196714 -2.70503390927539 -3.05560043180806 4.57829247530948 3.10408620242566 -0.775529649120377 7.87789799263187 0.459421806956268 -5.84729312501787
Ceramic_materials	-3.77567114414508 -4.29296514022257 4.55348729649114 -9.05706563430482 6.40134759859987 0.0938594312485814 5.07490369919006 2.89295987105743 2.59539349214386 7.9179233222409 -8.63713790134161 2.45191501793967 0.320117794470157 -13.3826884517007 0.959473286020292 1.52561827069287 -7.54654243381422 -2.29798243227077 -6.38894198455094 -11.0217534572309 -1.49793535328079 -6.61434136837476 0.348454880160126 -3.94143721129588 4.30515678917192 8.62141457890511 -7.18858748512841 -8.79659008808497 3.13132215834312 1.64835829898981 -2.72470803532895 -6.45023462865761 1.96121050036082 -2.23963366215673 5.21712265407317 -0.41361303585076 -3.21712699917422 -10.2421375410794 1.05915540630818 14.7093871193502 -4.80585617706581 -2.34019608004697 1.83119303322304 5.01460329004458 -4.74781235110896 4.19888671416986 -5.66522867921693 5.09279930676056 -1.08339067741585 -2.67791120616985 0.435610644121204 8.65107294973825 -7.13381017235438 6.09905861226038 -3.06539511559082 0.0400640533314614 -1.73186415269898 3.5772793066237 1.86008639781374 -6.19937465418018 -0.272741794994689 12.739896388708 -6.63637800784967 -4.07976466919312 -1.1143633552373 2.64591339737147 1.63202726781698 -0.0792706499227527 2.54822983449868 2.84063846067461 -6.8488878001363 0.180672141510141 -7.97423559947497 3.89684979578052 -4.36988999588959 2.24062294085364 -5.70592091284199 -2.92168921787705 0.119767738157966 -4.10272468288591 -5.96153316684621 -8.42243906964239 -3.94712489861528 -1.04397096268983 0.34399794673135 0.905291649161175 -1.95757065399654 -1.99226418749172 6.56816985413022 -11.3263678572062 5.70856072112 -9.36323593823461 -3.55876871461248 -4.2451371559943 2.76202229024915 3.43921237580118 -4.50269372717973 9.41926976122195 1.37691226209187 -8.29213345831053
